{"learner":{"attributes":{"scikit_learn":"{\"_estimator_type\": \"regressor\"}"},"feature_names":["IONIZATION_POTENTIAL","ELECTROAFFINITY","HARDNESS","TOTAL__ELECTRONIC_ENERGY","RADIO GEOMETRICO","VOLUMEN DE CAVIDAD","NATURAL_CHARGE_L1","NATURAL_CHARGE_L2","NATURAL_CHARGE_L3","NATURAL_CHARGE_L4"],"feature_types":["float","float","float","float","float","float","float","float","float","float"],"gradient_booster":{"model":{"gbtree_model_param":{"num_parallel_tree":"1","num_trees":"200"},"iteration_indptr":[0,1,2,3,4,5,6,7,8,9,10,11,12,13,14,15,16,17,18,19,20,21,22,23,24,25,26,27,28,29,30,31,32,33,34,35,36,37,38,39,40,41,42,43,44,45,46,47,48,49,50,51,52,53,54,55,56,57,58,59,60,61,62,63,64,65,66,67,68,69,70,71,72,73,74,75,76,77,78,79,80,81,82,83,84,85,86,87,88,89,90,91,92,93,94,95,96,97,98,99,100,101,102,103,104,105,106,107,108,109,110,111,112,113,114,115,116,117,118,119,120,121,122,123,124,125,126,127,128,129,130,131,132,133,134,135,136,137,138,139,140,141,142,143,144,145,146,147,148,149,150,151,152,153,154,155,156,157,158,159,160,161,162,163,164,165,166,167,168,169,170,171,172,173,174,175,176,177,178,179,180,181,182,183,184,185,186,187,188,189,190,191,192,193,194,195,196,197,198,199,200],"tree_info":[0,0,0,0,0,0,0,0,0,0,0,0,0,0,0,0,0,0,0,0,0,0,0,0,0,0,0,0,0,0,0,0,0,0,0,0,0,0,0,0,0,0,0,0,0,0,0,0,0,0,0,0,0,0,0,0,0,0,0,0,0,0,0,0,0,0,0,0,0,0,0,0,0,0,0,0,0,0,0,0,0,0,0,0,0,0,0,0,0,0,0,0,0,0,0,0,0,0,0,0,0,0,0,0,0,0,0,0,0,0,0,0,0,0,0,0,0,0,0,0,0,0,0,0,0,0,0,0,0,0,0,0,0,0,0,0,0,0,0,0,0,0,0,0,0,0,0,0,0,0,0,0,0,0,0,0,0,0,0,0,0,0,0,0,0,0,0,0,0,0,0,0,0,0,0,0,0,0,0,0,0,0,0,0,0,0,0,0,0,0,0,0,0,0,0,0,0,0,0,0],"trees":[{"base_weights":[-5.9751625E-4,-3.475687E-1,5.138976E-1,4.2294376E-2,-5.179192E-1,2.2233768E-1,5.8028984E-1,1.4444445E-2,-3.8040403E-2,-6.1280586E-2,2.5204545E-2,7.959597E-3,2.6351517E-2,3.644697E-2,6.519318E-2],"categories":[],"categories_nodes":[],"categories_segments":[],"categories_sizes":[],"default_left":[0,0,0,0,0,0,0,0,0,0,0,0,0,0,0],"id":0,"left_children":[1,3,5,7,9,11,13,-1,-1,-1,-1,-1,-1,-1,-1],"loss_changes":[1.2853178E1,2.8776789E0,4.3234253E-1,6.5944856E-1,2.3462362E0,2.0169467E-2,1.18011475E-1,0E0,0E0,0E0,0E0,0E0,0E0,0E0,0E0],"parents":[2147483647,0,0,1,1,2,2,3,3,4,4,5,5,6,6],"right_children":[2,4,6,8,10,12,14,-1,-1,-1,-1,-1,-1,-1,-1],"split_conditions":[-5.467468E-1,-5.215972E-2,-4.5477322E-1,7.317401E-1,-2.4728874E-2,-1.3240536E0,1.0057081E0,1.4444445E-2,-3.8040403E-2,-6.1280586E-2,2.5204545E-2,7.959597E-3,2.6351517E-2,3.644697E-2,6.519318E-2],"split_indices":[9,4,5,1,7,1,8,0,0,0,0,0,0,0,0],"split_type":[0,0,0,0,0,0,0,0,0,0,0,0,0,0,0],"sum_hessian":[7E1,4.2E1,2.8E1,1.3E1,2.9E1,6E0,2.2E1,1.1E1,2E0,2.6E1,3E0,2E0,4E0,7E0,1.5E1],"tree_param":{"num_deleted":"0","num_feature":"10","num_nodes":"15","size_leaf_vector":"1"}},{"base_weights":[-1.09925065E-2,-3.315976E-1,4.0948978E-1,-4.5498696E-1,1.879858E-1,5.315991E-1,2.6008114E-1,1.06212115E-2,-5.189087E-2,3.5637964E-2,7.245791E-3,5.55699E-2,9.710039E-3,9.475795E-3,2.9351545E-2],"categories":[],"categories_nodes":[],"categories_segments":[],"categories_sizes":[],"default_left":[0,0,0,0,0,0,0,0,0,0,0,0,0,0,0],"id":1,"left_children":[1,3,5,7,9,11,13,-1,-1,-1,-1,-1,-1,-1,-1],"loss_changes":[9.033164E0,2.521751E0,3.908229E-1,1.1671724E0,1.2981096E-1,1.03111744E-1,5.509913E-2,0E0,0E0,0E0,0E0,0E0,0E0,0E0,0E0],"parents":[2147483647,0,0,1,1,2,2,3,3,4,4,5,5,6,6],"right_children":[2,4,6,8,10,12,14,-1,-1,-1,-1,-1,-1,-1,-1],"split_conditions":[-5.467468E-1,2.9155156E-1,-1.7658718E-1,-9.097223E-1,8.6878645E-1,2.7150578E0,-5.0425047E-1,1.06212115E-2,-5.189087E-2,3.5637964E-2,7.245791E-3,5.55699E-2,9.710039E-3,9.475795E-3,2.9351545E-2],"split_indices":[9,2,0,4,2,8,8,0,0,0,0,0,0,0,0],"split_type":[0,0,0,0,0,0,0,0,0,0,0,0,0,0,0],"sum_hessian":[6.5E1,3.7E1,2.8E1,3E1,7E0,1.4E1,1.4E1,3E0,2.7E1,2E0,5E0,1.3E1,1E0,3E0,1.1E1],"tree_param":{"num_deleted":"0","num_feature":"10","num_nodes":"15","size_leaf_vector":"1"}},{"base_weights":[-4.36745E-3,-3.6417076E-1,3.864009E-1,9.645571E-2,-4.9021965E-1,1.8151818E-1,4.8540416E-1,-3.7542905E-3,2.111632E-2,-5.6446474E-2,1.33489715E-2,3.8512994E-3,4.0262386E-2,5.6873348E-2,2.1368962E-2],"categories":[],"categories_nodes":[],"categories_segments":[],"categories_sizes":[],"default_left":[0,0,0,0,0,0,0,0,0,0,0,0,0,0,0],"id":2,"left_children":[1,3,5,7,9,11,13,-1,-1,-1,-1,-1,-1,-1,-1],"loss_changes":[1.0263898E1,2.2536201E0,6.218324E-1,1.4626348E-1,1.464571E0,3.955441E-1,3.9922857E-1,0E0,0E0,0E0,0E0,0E0,0E0,0E0,0E0],"parents":[2147483647,0,0,1,1,2,2,3,3,4,4,5,5,6,6],"right_children":[2,4,6,8,10,12,14,-1,-1,-1,-1,-1,-1,-1,-1],"split_conditions":[-5.617686E-1,-4.9241504E-1,1.0057081E0,-5.4996794E-1,3.560775E-1,6.653906E-2,-6.510613E-1,-3.7542905E-3,2.111632E-2,-5.6446474E-2,1.33489715E-2,3.8512994E-3,4.0262386E-2,5.6873348E-2,2.1368962E-2],"split_indices":[9,6,8,8,2,6,3,0,0,0,0,0,0,0,0],"split_type":[0,0,0,0,0,0,0,0,0,0,0,0,0,0,0],"sum_hessian":[7.1E1,3.7E1,3.4E1,8E0,2.9E1,1.2E1,2.2E1,4E0,4E0,2.6E1,3E0,8E0,4E0,1.6E1,6E0],"tree_param":{"num_deleted":"0","num_feature":"10","num_nodes":"15","size_leaf_vector":"1"}},{"base_weights":[-2.970835E-2,-2.7465937E-1,3.7675223E-1,1.8159048E-1,-4.875484E-1,5.0958045E-2,2.3698054E-1,4.6323705E-2,-3.3721158E-3,-5.1254433E-2,1.5616096E-2,9.519355E-3,3.6686834E-2],"categories":[],"categories_nodes":[],"categories_segments":[],"categories_sizes":[],"default_left":[0,0,0,0,0,0,0,0,0,0,0,0,0],"id":3,"left_children":[1,3,5,7,9,-1,11,-1,-1,-1,-1,-1,-1],"loss_changes":[7.6702614E0,4.750802E0,4.176426E-1,9.858894E-1,6.1101437E-1,0E0,2.5973886E-1,0E0,0E0,0E0,0E0,0E0,0E0],"parents":[2147483647,0,0,1,1,2,2,3,3,4,4,6,6],"right_children":[2,4,6,8,10,-1,12,-1,-1,-1,-1,-1,-1],"split_conditions":[2.1012105E-2,-2.9589713E-1,-1.5786053E-1,-6.510613E-1,1.002657E0,5.0958045E-2,-2.4655685E-1,4.6323705E-2,-3.3721158E-3,-5.1254433E-2,1.5616096E-2,9.519355E-3,3.6686834E-2],"split_indices":[7,6,0,3,0,0,6,0,0,0,0,0,0],"split_type":[0,0,0,0,0,0,0,0,0,0,0,0,0],"sum_hessian":[7.5E1,4.7E1,2.8E1,1.5E1,3.2E1,1.3E1,1.5E1,6E0,9E0,3.1E1,1E0,8E0,7E0],"tree_param":{"num_deleted":"0","num_feature":"10","num_nodes":"13","size_leaf_vector":"1"}},{"base_weights":[-4.297535E-2,-3.0028412E-1,3.4934446E-1,-1.6208228E-2,-4.03905E-1,-1.9501576E-2,3.77782E-1,-7.970751E-3,1.3071722E-2,2.8463786E-2,-4.3746296E-2,1.1111295E-2,4.077339E-2],"categories":[],"categories_nodes":[],"categories_segments":[],"categories_sizes":[],"default_left":[0,0,0,0,0,0,0,0,0,0,0,0,0],"id":4,"left_children":[1,3,5,7,9,-1,11,-1,-1,-1,-1,-1,-1],"loss_changes":[6.868373E0,1.2003374E0,4.9164033E-1,1.2237506E-1,8.1770086E-1,0E0,1.6236424E-1,0E0,0E0,0E0,0E0,0E0,0E0],"parents":[2147483647,0,0,1,1,2,2,3,3,4,4,6,6],"right_children":[2,4,6,8,10,-1,12,-1,-1,-1,-1,-1,-1],"split_conditions":[-4.8269796E-1,-4.5226827E-1,-2.537969E0,1.3620712E0,-5.606512E-1,-1.9501576E-2,-1.3627975E0,-7.970751E-3,1.3071722E-2,2.8463786E-2,-4.3746296E-2,1.1111295E-2,4.077339E-2],"split_indices":[8,6,3,3,4,0,4,0,0,0,0,0,0],"split_type":[0,0,0,0,0,0,0,0,0,0,0,0,0],"sum_hessian":[6.6E1,4E1,2.6E1,1.1E1,2.9E1,1E0,2.5E1,8E0,3E0,1E0,2.8E1,3E0,2.2E1],"tree_param":{"num_deleted":"0","num_feature":"10","num_nodes":"13","size_leaf_vector":"1"}},{"base_weights":[2.5040299E-2,-2.2660187E-1,2.981497E-1,-3.086348E-1,1.6905844E-1,1.159625E-1,3.802409E-1,-3.5496425E-2,9.283019E-3,3.0435795E-2,5.4067043E-3,-4.1784444E-3,3.451651E-2,4.5142468E-2,1.5304578E-2],"categories":[],"categories_nodes":[],"categories_segments":[],"categories_sizes":[],"default_left":[0,0,0,0,0,0,0,0,0,0,0,0,0,0,0],"id":5,"left_children":[1,3,5,7,9,11,13,-1,-1,-1,-1,-1,-1,-1,-1],"loss_changes":[4.878371E0,1.2530926E0,4.644091E-1,6.0954094E-1,9.245223E-2,4.4829464E-1,3.0288148E-1,0E0,0E0,0E0,0E0,0E0,0E0,0E0,0E0],"parents":[2147483647,0,0,1,1,2,2,3,3,4,4,5,5,6,6],"right_children":[2,4,6,8,10,12,14,-1,-1,-1,-1,-1,-1,-1,-1],"split_conditions":[-5.6475055E-1,3.560775E-1,8.228161E-1,1.3277907E0,8.6878645E-1,9.802455E-2,-6.4799917E-1,-3.5496425E-2,9.283019E-3,3.0435795E-2,5.4067043E-3,-4.1784444E-3,3.451651E-2,4.5142468E-2,1.5304578E-2],"split_indices":[9,2,9,3,2,4,3,0,0,0,0,0,0,0,0],"split_type":[0,0,0,0,0,0,0,0,0,0,0,0,0,0,0],"sum_hessian":[6.9E1,3.6E1,3.3E1,3E1,6E0,1.1E1,2.2E1,2.7E1,3E0,2E0,4E0,7E0,4E0,1.6E1,6E0],"tree_param":{"num_deleted":"0","num_feature":"10","num_nodes":"15","size_leaf_vector":"1"}},{"base_weights":[4.0019215E-3,-1.9666155E-1,3.013994E-1,-2.962863E-1,2.126194E-1,-8.882741E-3,3.1850848E-1,-3.1892102E-2,5.145726E-3,3.9462864E-2,5.5843345E-3,2.655367E-2,4.6848226E-2],"categories":[],"categories_nodes":[],"categories_segments":[],"categories_sizes":[],"default_left":[0,0,0,0,0,0,0,0,0,0,0,0,0],"id":6,"left_children":[1,3,5,7,9,-1,11,-1,-1,-1,-1,-1,-1],"loss_changes":[4.296327E0,1.8163005E0,2.2190833E-1,2.91898E-1,2.3477483E-1,0E0,9.804344E-2,0E0,0E0,0E0,0E0,0E0,0E0],"parents":[2147483647,0,0,1,1,2,2,3,3,4,4,6,6],"right_children":[2,4,6,8,10,-1,12,-1,-1,-1,-1,-1,-1],"split_conditions":[-5.467468E-1,5.776424E-1,-1.4916714E0,1.3277907E0,8.6878645E-1,-8.882741E-3,1.0525618E0,-3.1892102E-2,5.145726E-3,3.9462864E-2,5.5843345E-3,2.655367E-2,4.6848226E-2],"split_indices":[9,2,5,3,2,0,5,0,0,0,0,0,0],"split_type":[0,0,0,0,0,0,0,0,0,0,0,0,0],"sum_hessian":[7E1,4.2E1,2.8E1,3.4E1,8E0,1E0,2.7E1,3.2E1,2E0,3E0,5E0,2.2E1,5E0],"tree_param":{"num_deleted":"0","num_feature":"10","num_nodes":"13","size_leaf_vector":"1"}},{"base_weights":[4.0247507E-2,-1.5996648E-1,2.9622808E-1,-2.3096098E-1,1.6714801E-1,3.629892E-1,1.3975923E-1,9.301428E-3,-2.9947663E-2,-4.889329E-3,2.1130377E-2,4.055291E-2,2.0323122E-2,-4.050064E-3,1.6428817E-2],"categories":[],"categories_nodes":[],"categories_segments":[],"categories_sizes":[],"default_left":[0,0,0,0,0,0,0,0,0,0,0,0,0,0,0],"id":7,"left_children":[1,3,5,7,9,11,13,-1,-1,-1,-1,-1,-1,-1,-1],"loss_changes":[3.2761931E0,8.746444E-1,2.4175763E-1,6.937767E-1,7.710758E-2,4.67093E-2,5.086963E-2,0E0,0E0,0E0,0E0,0E0,0E0,0E0,0E0],"parents":[2147483647,0,0,1,1,2,2,3,3,4,4,5,5,6,6],"right_children":[2,4,6,8,10,12,14,-1,-1,-1,-1,-1,-1,-1,-1],"split_conditions":[-4.6310478E-1,1.1568954E-1,-6.510613E-1,-9.097223E-1,2.0738306E-2,7.218539E-1,-1.3627975E0,9.301428E-3,-2.9947663E-2,-4.889329E-3,2.1130377E-2,4.055291E-2,2.0323122E-2,-4.050064E-3,1.6428817E-2],"split_indices":[8,7,3,4,4,2,4,0,0,0,0,0,0,0,0],"split_type":[0,0,0,0,0,0,0,0,0,0,0,0,0,0,0],"sum_hessian":[6.2E1,3.5E1,2.7E1,2.9E1,6E0,1.8E1,9E0,5E0,2.4E1,1E0,5E0,1.3E1,5E0,1E0,8E0],"tree_param":{"num_deleted":"0","num_feature":"10","num_nodes":"15","size_leaf_vector":"1"}},{"base_weights":[2.7736789E-2,-1.740557E-1,2.6019257E-1,8.1977434E-2,-2.5927982E-1,-1.5225585E-2,2.7840886E-1,-1.0501035E-2,1.4185068E-2,4.489075E-3,-2.8440414E-2,-6.941221E-3,2.9231662E-2],"categories":[],"categories_nodes":[],"categories_segments":[],"categories_sizes":[],"default_left":[0,0,0,0,0,0,0,0,0,0,0,0,0],"id":8,"left_children":[1,3,5,7,9,-1,11,-1,-1,-1,-1,-1,-1],"loss_changes":[3.2350206E0,8.2860255E-1,2.8281403E-1,1.2685142E-1,2.2674525E-1,0E0,1.7025018E-1,0E0,0E0,0E0,0E0,0E0,0E0],"parents":[2147483647,0,0,1,1,2,2,3,3,4,4,6,6],"right_children":[2,4,6,8,10,-1,12,-1,-1,-1,-1,-1,-1],"split_conditions":[-5.6475055E-1,-5.606512E-1,-2.537969E0,-4.0890446E-1,-4.9241504E-1,-1.5225585E-2,-1.4916714E0,-1.0501035E-2,1.4185068E-2,4.489075E-3,-2.8440414E-2,-6.941221E-3,2.9231662E-2],"split_indices":[9,4,3,2,6,0,5,0,0,0,0,0,0],"split_type":[0,0,0,0,0,0,0,0,0,0,0,0,0],"sum_hessian":[6.7E1,3.6E1,3.1E1,9E0,2.7E1,1E0,3E1,2E0,7E0,2E0,2.5E1,1E0,2.9E1],"tree_param":{"num_deleted":"0","num_feature":"10","num_nodes":"13","size_leaf_vector":"1"}},{"base_weights":[2.7227093E-2,-1.6781467E-1,2.2144379E-1,7.38898E-2,-2.761162E-1,3.7720397E-1,1.01339474E-1,1.1958104E-2,1.5883603E-3,4.739232E-3,-2.929753E-2,2.0986976E-2,4.4684857E-2,-7.590938E-3,2.2583116E-2],"categories":[],"categories_nodes":[],"categories_segments":[],"categories_sizes":[],"default_left":[0,0,0,0,0,0,0,0,0,0,0,0,0,0,0],"id":9,"left_children":[1,3,5,7,9,11,13,-1,-1,-1,-1,-1,-1,-1,-1],"loss_changes":[2.4993856E0,8.842417E-1,5.791209E-1,2.725475E-2,1.3932836E-1,6.937504E-2,4.584628E-1,0E0,0E0,0E0,0E0,0E0,0E0,0E0,0E0],"parents":[2147483647,0,0,1,1,2,2,3,3,4,4,5,5,6,6],"right_children":[2,4,6,8,10,12,14,-1,-1,-1,-1,-1,-1,-1,-1],"split_conditions":[-2.606464E-1,-9.097223E-1,-6.510613E-1,1.8085474E-1,-9.770207E-1,-1.1935182E0,5.0611967E-1,1.1958104E-2,1.5883603E-3,4.739232E-3,-2.929753E-2,2.0986976E-2,4.4684857E-2,-7.590938E-3,2.2583116E-2],"split_indices":[7,4,3,3,9,1,2,0,0,0,0,0,0,0,0],"split_type":[0,0,0,0,0,0,0,0,0,0,0,0,0,0,0],"sum_hessian":[6.4E1,3.2E1,3.2E1,1E1,2.2E1,1.3E1,1.9E1,5E0,5E0,1E0,2.1E1,5E0,8E0,8E0,1.1E1],"tree_param":{"num_deleted":"0","num_feature":"10","num_nodes":"15","size_leaf_vector":"1"}},{"base_weights":[2.4614392E-2,-1.02276035E-1,2.1835923E-1,-1.7802931E-1,1.5494159E-1,1.5547866E-1,4.4396847E-2,3.6011965E-3,-2.6173795E-2,8.024975E-3,3.2736998E-2,1.9881148E-4,2.1505898E-2],"categories":[],"categories_nodes":[],"categories_segments":[],"categories_sizes":[],"default_left":[0,0,0,0,0,0,0,0,0,0,0,0,0],"id":10,"left_children":[1,3,5,7,9,11,-1,-1,-1,-1,-1,-1,-1],"loss_changes":[1.8661604E0,9.2389774E-1,3.565656E-1,6.5444136E-1,1.153976E-1,2.2819781E-1,0E0,0E0,0E0,0E0,0E0,0E0,0E0],"parents":[2147483647,0,0,1,1,2,2,3,3,4,4,5,5],"right_children":[2,4,6,8,10,12,-1,-1,-1,-1,-1,-1,-1],"split_conditions":[-4.8269796E-1,5.776424E-1,1.2350975E0,-4.9241504E-1,-4.62941E-1,6.653906E-2,4.4396847E-2,3.6011965E-3,-2.6173795E-2,8.024975E-3,3.2736998E-2,1.9881148E-4,2.1505898E-2],"split_indices":[8,2,5,6,5,6,0,0,0,0,0,0,0],"split_type":[0,0,0,0,0,0,0,0,0,0,0,0,0],"sum_hessian":[7.4E1,4.5E1,2.9E1,3.5E1,1E1,2.4E1,5E0,1E1,2.5E1,8E0,2E0,7E0,1.7E1],"tree_param":{"num_deleted":"0","num_feature":"10","num_nodes":"13","size_leaf_vector":"1"}},{"base_weights":[1.8240603E-2,-1.4176208E-1,1.9182469E-1,1.1220981E-1,-2.0476252E-1,-3.793193E-2,2.4241295E-1,3.3401623E-3,1.826676E-2,-3.417798E-3,-2.4598457E-2,8.124257E-3,-1.0185025E-2,1.8894507E-2,4.069711E-2],"categories":[],"categories_nodes":[],"categories_segments":[],"categories_sizes":[],"default_left":[0,0,0,0,0,0,0,0,0,0,0,0,0,0,0],"id":11,"left_children":[1,3,5,7,9,11,13,-1,-1,-1,-1,-1,-1,-1,-1],"loss_changes":[1.9713678E0,6.149891E-1,4.0437686E-1,3.831981E-2,2.0254803E-1,6.1596602E-2,1.6946507E-1,0E0,0E0,0E0,0E0,0E0,0E0,0E0,0E0],"parents":[2147483647,0,0,1,1,2,2,3,3,4,4,5,5,6,6],"right_children":[2,4,6,8,10,12,14,-1,-1,-1,-1,-1,-1,-1,-1],"split_conditions":[-4.9077713E-1,-5.606512E-1,-4.2163762E-1,-6.8171906E-1,-5.6428796E-1,-6.3582593E-1,2.3972368E0,3.3401623E-3,1.826676E-2,-3.417798E-3,-2.4598457E-2,8.124257E-3,-1.0185025E-2,1.8894507E-2,4.069711E-2],"split_indices":[8,4,7,7,8,7,8,0,0,0,0,0,0,0,0],"split_type":[0,0,0,0,0,0,0,0,0,0,0,0,0,0,0],"sum_hessian":[6.9E1,3.6E1,3.3E1,7E0,2.9E1,6E0,2.7E1,4E0,3E0,6E0,2.3E1,2E0,4E0,2.2E1,5E0],"tree_param":{"num_deleted":"0","num_feature":"10","num_nodes":"15","size_leaf_vector":"1"}},{"base_weights":[-1.5852764E-2,-1.3929902E-1,1.1469472E-1,1.6112167E-2,-2.2697379E-1,2.6463062E-1,1.192372E-2,5.7640723E-3,-1.6921561E-2,-9.016802E-3,-2.5666682E-2,3.732912E-2,1.2289121E-2,-1.2261144E-2,9.184989E-3],"categories":[],"categories_nodes":[],"categories_segments":[],"categories_sizes":[],"default_left":[0,0,0,0,0,0,0,0,0,0,0,0,0,0,0],"id":12,"left_children":[1,3,5,7,9,11,13,-1,-1,-1,-1,-1,-1,-1,-1],"loss_changes":[1.2246467E0,5.350568E-1,5.6697994E-1,1.2519962E-1,7.841134E-2,1.8514812E-1,2.585781E-1,0E0,0E0,0E0,0E0,0E0,0E0,0E0,0E0],"parents":[2147483647,0,0,1,1,2,2,3,3,4,4,5,5,6,6],"right_children":[2,4,6,8,10,12,14,-1,-1,-1,-1,-1,-1,-1,-1],"split_conditions":[-2.606464E-1,-2.986298E-2,-6.510613E-1,-4.5328805E-1,-7.864653E-1,2.0878165E0,-3.44057E-1,5.7640723E-3,-1.6921561E-2,-9.016802E-3,-2.5666682E-2,3.732912E-2,1.2289121E-2,-1.2261144E-2,9.184989E-3],"split_indices":[7,4,3,7,3,7,0,0,0,0,0,0,0,0,0],"split_type":[0,0,0,0,0,0,0,0,0,0,0,0,0,0,0],"sum_hessian":[7.4E1,3.8E1,3.6E1,1.4E1,2.4E1,1.4E1,2.2E1,1.2E1,2E0,5E0,1.9E1,7E0,7E0,8E0,1.4E1],"tree_param":{"num_deleted":"0","num_feature":"10","num_nodes":"15","size_leaf_vector":"1"}},{"base_weights":[4.3734857E-3,-1.4526716E-1,1.6790627E-1,6.472867E-2,-2.2044758E-1,2.3924699E-2,2.0021261E-1,-5.802011E-3,1.56231215E-2,-2.3133684E-2,2.5891692E-3,-9.217439E-3,8.879921E-3,1.5713543E-2,3.17614E-2],"categories":[],"categories_nodes":[],"categories_segments":[],"categories_sizes":[],"default_left":[0,0,0,0,0,0,0,0,0,0,0,0,0,0,0],"id":13,"left_children":[1,3,5,7,9,11,13,-1,-1,-1,-1,-1,-1,-1,-1],"loss_changes":[1.6394873E0,5.668344E-1,1.4405847E-1,1.21382795E-1,7.573342E-2,6.0908113E-2,8.158207E-2,0E0,0E0,0E0,0E0,0E0,0E0,0E0,0E0],"parents":[2147483647,0,0,1,1,2,2,3,3,4,4,5,5,6,6],"right_children":[2,4,6,8,10,12,14,-1,-1,-1,-1,-1,-1,-1,-1],"split_conditions":[-4.850685E-1,-4.9241504E-1,-4.9820736E-1,-6.1853755E-1,2.9155156E-1,8.959146E-3,2.316463E-1,-5.802011E-3,1.56231215E-2,-2.3133684E-2,2.5891692E-3,-9.217439E-3,8.879921E-3,1.5713543E-2,3.17614E-2],"split_indices":[8,6,7,9,2,2,4,0,0,0,0,0,0,0,0],"split_type":[0,0,0,0,0,0,0,0,0,0,0,0,0,0,0],"sum_hessian":[6.5E1,3.4E1,3.1E1,9E0,2.5E1,6E0,2.5E1,4E0,5E0,2.4E1,1E0,2E0,4E0,2E1,5E0],"tree_param":{"num_deleted":"0","num_feature":"10","num_nodes":"15","size_leaf_vector":"1"}},{"base_weights":[9.040207E-3,-1.0747225E-1,1.3824737E-1,4.3218564E-2,-1.9027571E-1,-3.9409674E-3,1.6168606E-1,-7.109133E-3,1.2732419E-2,-2.015551E-2,-3.6615375E-3,-4.945694E-3,1.700925E-2],"categories":[],"categories_nodes":[],"categories_segments":[],"categories_sizes":[],"default_left":[0,0,0,0,0,0,0,0,0,0,0,0,0],"id":14,"left_children":[1,3,5,7,9,-1,11,-1,-1,-1,-1,-1,-1],"loss_changes":[1.1439261E0,5.0733227E-1,1.5627766E-1,1.5326323E-1,3.768307E-2,0E0,6.521112E-2,0E0,0E0,0E0,0E0,0E0,0E0],"parents":[2147483647,0,0,1,1,2,2,3,3,4,4,6,6],"right_children":[2,4,6,8,10,-1,12,-1,-1,-1,-1,-1,-1],"split_conditions":[-4.850685E-1,-2.9589713E-1,-1.4894906E0,-4.0890446E-1,-2.0194339E-2,-3.9409674E-3,-1.0123311E0,-7.109133E-3,1.2732419E-2,-2.015551E-2,-3.6615375E-3,-4.945694E-3,1.700925E-2],"split_indices":[8,6,3,2,7,0,0,0,0,0,0,0,0],"split_type":[0,0,0,0,0,0,0,0,0,0,0,0,0],"sum_hessian":[7.4E1,3.9E1,3.5E1,1.4E1,2.5E1,4E0,3.1E1,6E0,8E0,2.3E1,2E0,1E0,3E1],"tree_param":{"num_deleted":"0","num_feature":"10","num_nodes":"13","size_leaf_vector":"1"}},{"base_weights":[-3.811179E-4,-1.0007399E-1,1.0456878E-1,-1.4174624E-1,1.16630316E-1,7.927467E-2,2.2625826E-1,5.6191003E-3,-1.6271407E-2,2.1901151E-2,3.1875544E-3,1.0544112E-3,1.3596435E-2,-4.6984092E-3,2.9030357E-2],"categories":[],"categories_nodes":[],"categories_segments":[],"categories_sizes":[],"default_left":[0,0,0,0,0,0,0,0,0,0,0,0,0,0,0],"id":15,"left_children":[1,3,5,7,9,11,13,-1,-1,-1,-1,-1,-1,-1,-1],"loss_changes":[8.160969E-1,3.7775412E-1,9.902847E-2,1.5025365E-1,5.3759955E-2,1.2714472E-1,1.1863896E-1,0E0,0E0,0E0,0E0,0E0,0E0,0E0,0E0],"parents":[2147483647,0,0,1,1,2,2,3,3,4,4,5,5,6,6],"right_children":[2,4,6,8,10,12,14,-1,-1,-1,-1,-1,-1,-1,-1],"split_conditions":[-5.617686E-1,5.776424E-1,1.2350975E0,-1.3030889E0,8.6878645E-1,6.653906E-2,-1.0123311E0,5.6191003E-3,-1.6271407E-2,2.1901151E-2,3.1875544E-3,1.0544112E-3,1.3596435E-2,-4.6984092E-3,2.9030357E-2],"split_indices":[9,2,5,5,2,6,0,0,0,0,0,0,0,0,0],"split_type":[0,0,0,0,0,0,0,0,0,0,0,0,0,0,0],"sum_hessian":[7.6E1,3.9E1,3.7E1,3.3E1,6E0,3.2E1,5E0,3E0,3E1,2E0,4E0,1.5E1,1.7E1,1E0,4E0],"tree_param":{"num_deleted":"0","num_feature":"10","num_nodes":"15","size_leaf_vector":"1"}},{"base_weights":[2.2175882E-3,-8.8435054E-2,9.0360224E-2,5.0907623E-2,-1.6940734E-1,-6.501335E-2,1.3546374E-1,1.124034E-2,-9.264632E-4,-1.9716827E-2,-1.0431611E-2,1.8694767E-3,-9.160063E-3,3.1230623E-2,1.0304707E-2],"categories":[],"categories_nodes":[],"categories_segments":[],"categories_sizes":[],"default_left":[0,0,0,0,0,0,0,0,0,0,0,0,0,0,0],"id":16,"left_children":[1,3,5,7,9,11,13,-1,-1,-1,-1,-1,-1,-1,-1],"loss_changes":[5.832972E-1,4.148083E-1,2.6809904E-1,5.284613E-2,2.0993054E-2,2.1742597E-2,1.3406456E-1,0E0,0E0,0E0,0E0,0E0,0E0,0E0,0E0],"parents":[2147483647,0,0,1,1,2,2,3,3,4,4,5,5,6,6],"right_children":[2,4,6,8,10,12,14,-1,-1,-1,-1,-1,-1,-1,-1],"split_conditions":[-2.606464E-1,-2.986298E-2,-5.392038E-1,-5.7614064E-1,1.5300195E-1,-2.6836647E-2,-3.8241178E-2,1.124034E-2,-9.264632E-4,-1.9716827E-2,-1.0431611E-2,1.8694767E-3,-9.160063E-3,3.1230623E-2,1.0304707E-2],"split_indices":[7,4,8,8,0,3,7,0,0,0,0,0,0,0,0],"split_type":[0,0,0,0,0,0,0,0,0,0,0,0,0,0,0],"sum_hessian":[7.1E1,3.5E1,3.6E1,1.3E1,2.2E1,8E0,2.8E1,6E0,7E0,1.4E1,8E0,2E0,6E0,3E0,2.5E1],"tree_param":{"num_deleted":"0","num_feature":"10","num_nodes":"15","size_leaf_vector":"1"}},{"base_weights":[1.7144617E-2,-6.246816E-2,1.4624897E-1,-1.21100605E-1,2.8950961E-2,1.05913155E-1,1.9529077E-1,-1.3641097E-2,4.685265E-3,2.1423323E-2,-2.2387705E-3,1.3557397E-2,-2.4377964E-3,2.2993835E-2,2.6251148E-3],"categories":[],"categories_nodes":[],"categories_segments":[],"categories_sizes":[],"default_left":[0,0,0,0,0,0,0,0,0,0,0,0,0,0,0],"id":17,"left_children":[1,3,5,7,9,11,13,-1,-1,-1,-1,-1,-1,-1,-1],"loss_changes":[7.2862077E-1,2.3935157E-1,3.272593E-2,7.58197E-2,1.7601478E-1,6.9002196E-2,5.838877E-2,0E0,0E0,0E0,0E0,0E0,0E0,0E0,0E0],"parents":[2147483647,0,0,1,1,2,2,3,3,4,4,5,5,6,6],"right_children":[2,4,6,8,10,12,14,-1,-1,-1,-1,-1,-1,-1,-1],"split_conditions":[-2.2633387E-1,1.840347E-1,-1.0296423E0,4.1689855E-1,1.0686562E-2,9.1700506E-1,-4.9241504E-1,-1.3641097E-2,4.685265E-3,2.1423323E-2,-2.2387705E-3,1.3557397E-2,-2.4377964E-3,2.2993835E-2,2.6251148E-3],"split_indices":[9,0,1,6,1,9,6,0,0,0,0,0,0,0,0],"split_type":[0,0,0,0,0,0,0,0,0,0,0,0,0,0,0],"sum_hessian":[6.9E1,4.3E1,2.6E1,2.6E1,1.7E1,1.6E1,1E1,2.4E1,2E0,3E0,1.4E1,1.3E1,3E0,8E0,2E0],"tree_param":{"num_deleted":"0","num_feature":"10","num_nodes":"15","size_leaf_vector":"1"}},{"base_weights":[1.989259E-2,-8.0050685E-2,1.0270502E-1,-1.1959389E-1,1.3100709E-1,-2.2512143E-3,1.164782E-1,-2.058168E-3,-1.4348936E-2,2.530548E-2,6.7195337E-4,1.601949E-2,6.912343E-3],"categories":[],"categories_nodes":[],"categories_segments":[],"categories_sizes":[],"default_left":[0,0,0,0,0,0,0,0,0,0,0,0,0],"id":18,"left_children":[1,3,5,7,9,-1,11,-1,-1,-1,-1,-1,-1],"loss_changes":[6.372391E-1,3.0777413E-1,7.505694E-2,6.802505E-2,8.931365E-2,0E0,6.759417E-2,0E0,0E0,0E0,0E0,0E0,0E0],"parents":[2147483647,0,0,1,1,2,2,3,3,4,4,6,6],"right_children":[2,4,6,8,10,-1,12,-1,-1,-1,-1,-1,-1],"split_conditions":[-5.7197E-1,5.776424E-1,-1.4894906E0,-4.9241504E-1,6.68994E-1,-2.2512143E-3,-6.4799917E-1,-2.058168E-3,-1.4348936E-2,2.530548E-2,6.7195337E-4,1.601949E-2,6.912343E-3],"split_indices":[9,2,3,6,3,0,3,0,0,0,0,0,0],"split_type":[0,0,0,0,0,0,0,0,0,0,0,0,0],"sum_hessian":[7.5E1,3.4E1,4.1E1,2.9E1,5E0,4E0,3.7E1,6E0,2.3E1,2E0,3E0,1.8E1,1.9E1],"tree_param":{"num_deleted":"0","num_feature":"10","num_nodes":"13","size_leaf_vector":"1"}},{"base_weights":[9.0860645E-4,-5.614771E-2,9.596881E-2,3.5141174E-2,-9.040855E-2,1.6285969E-2,1.23043515E-1,2.1218585E-2,-1.6338391E-3,7.575321E-4,-1.0817622E-2,-6.2339124E-3,7.5928853E-3,1.5872821E-2,1.3324504E-3],"categories":[],"categories_nodes":[],"categories_segments":[],"categories_sizes":[],"default_left":[0,0,0,0,0,0,0,0,0,0,0,0,0,0,0],"id":19,"left_children":[1,3,5,7,9,11,13,-1,-1,-1,-1,-1,-1,-1,-1],"loss_changes":[3.9047718E-1,1.439206E-1,5.6245625E-2,1.2195116E-1,5.8270633E-2,4.2248752E-2,7.61908E-2,0E0,0E0,0E0,0E0,0E0,0E0,0E0,0E0],"parents":[2147483647,0,0,1,1,2,2,3,3,4,4,5,5,6,6],"right_children":[2,4,6,8,10,12,14,-1,-1,-1,-1,-1,-1,-1,-1],"split_conditions":[6.063603E-2,-6.4799917E-1,-4.5477322E-1,-5.325034E-1,-1.0919914E0,1.4995724E-1,2.237348E0,2.1218585E-2,-1.6338391E-3,7.575321E-4,-1.0817622E-2,-6.2339124E-3,7.5928853E-3,1.5872821E-2,1.3324504E-3],"split_indices":[7,3,5,8,5,7,6,0,0,0,0,0,0,0,0],"split_type":[0,0,0,0,0,0,0,0,0,0,0,0,0,0,0],"sum_hessian":[7E1,4.4E1,2.6E1,1.2E1,3.2E1,7E0,1.9E1,2E0,1E1,5E0,2.7E1,3E0,4E0,1.4E1,5E0],"tree_param":{"num_deleted":"0","num_feature":"10","num_nodes":"15","size_leaf_vector":"1"}},{"base_weights":[2.465639E-2,-6.0016885E-2,8.906481E-2,7.644032E-3,-8.711426E-2,-1.6217183E-2,1.2576227E-1,3.0128146E-3,-1.0791E-2,1.0035822E-2,-6.6226567E-3,2.6490642E-2,9.642361E-3],"categories":[],"categories_nodes":[],"categories_segments":[],"categories_sizes":[],"default_left":[0,0,0,0,0,0,0,0,0,0,0,0,0],"id":20,"left_children":[1,3,5,-1,7,9,11,-1,-1,-1,-1,-1,-1],"loss_changes":[4.1437078E-1,1.2868088E-1,1.6817355E-1,0E0,7.151915E-2,7.6604754E-2,1.0509044E-1,0E0,0E0,0E0,0E0,0E0,0E0],"parents":[2147483647,0,0,1,1,2,2,4,4,5,5,6,6],"right_children":[2,4,6,-1,8,10,12,-1,-1,-1,-1,-1,-1],"split_conditions":[-2.606464E-1,-7.1458685E-1,-5.392038E-1,7.644032E-3,-7.121803E-1,-5.7611644E-1,4.5297734E-2,3.0128146E-3,-1.0791E-2,1.0035822E-2,-6.6226567E-3,2.6490642E-2,9.642361E-3],"split_indices":[7,7,8,0,8,8,7,0,0,0,0,0,0],"split_type":[0,0,0,0,0,0,0,0,0,0,0,0,0],"sum_hessian":[7.4E1,3.2E1,4.2E1,5E0,2.7E1,1.1E1,3.1E1,4E0,2.3E1,3E0,8E0,4E0,2.7E1],"tree_param":{"num_deleted":"0","num_feature":"10","num_nodes":"13","size_leaf_vector":"1"}},{"base_weights":[2.141334E-3,-6.867054E-2,1.0531943E-1,-8.643783E-2,9.063536E-3,2.3007916E-2,7.654046E-2,8.727342E-4,-1.0438425E-2,1.1792752E-2,2.8195197E-3],"categories":[],"categories_nodes":[],"categories_segments":[],"categories_sizes":[],"default_left":[0,0,0,0,0,0,0,0,0,0,0],"id":21,"left_children":[1,3,5,7,-1,-1,9,-1,-1,-1,-1],"loss_changes":[4.3099397E-1,1.06899485E-1,6.856057E-2,5.5562943E-2,0E0,0E0,3.8693227E-2,0E0,0E0,0E0,0E0],"parents":[2147483647,0,0,1,1,2,2,3,3,6,6],"right_children":[2,4,6,8,-1,-1,10,-1,-1,-1,-1],"split_conditions":[2.1012105E-2,8.5019165E-1,-5.6172377E-1,-1.3030889E0,9.063536E-3,2.3007916E-2,-7.245853E-1,8.727342E-4,-1.0438425E-2,1.1792752E-2,2.8195197E-3],"split_indices":[7,9,9,5,0,0,3,0,0,0,0],"split_type":[0,0,0,0,0,0,0,0,0,0,0],"sum_hessian":[5.7E1,3.4E1,2.3E1,3.1E1,3E0,3E0,2E1,5E0,2.6E1,1E1,1E1],"tree_param":{"num_deleted":"0","num_feature":"10","num_nodes":"11","size_leaf_vector":"1"}},{"base_weights":[-6.9147847E-3,-3.7287224E-2,1.0856051E-1,-5.9581887E-2,6.453802E-2,1.5941158E-1,-1.485371E-3,-6.9861263E-3,1.0418994E-2,-2.8226562E-3,1.0832663E-2,4.8482716E-3,2.000264E-2],"categories":[],"categories_nodes":[],"categories_segments":[],"categories_sizes":[],"default_left":[0,0,0,0,0,0,0,0,0,0,0,0,0],"id":22,"left_children":[1,3,5,7,9,11,-1,-1,-1,-1,-1,-1,-1],"loss_changes":[2.3552755E-1,1.24163754E-1,9.022826E-2,8.135159E-2,4.3678008E-2,3.5355747E-2,0E0,0E0,0E0,0E0,0E0,0E0,0E0],"parents":[2147483647,0,0,1,1,2,2,3,3,4,4,5,5],"right_children":[2,4,6,8,10,12,-1,-1,-1,-1,-1,-1,-1],"split_conditions":[3.3013147E-1,8.695182E-1,2.237348E0,1.3087041E0,-3.8579068E-1,-6.732275E-1,-1.485371E-3,-6.9861263E-3,1.0418994E-2,-2.8226562E-3,1.0832663E-2,4.8482716E-3,2.000264E-2],"split_indices":[6,9,6,0,0,2,0,0,0,0,0,0,0],"split_type":[0,0,0,0,0,0,0,0,0,0,0,0,0],"sum_hessian":[6.5E1,5.2E1,1.3E1,4.3E1,9E0,9E0,4E0,4.1E1,2E0,3E0,6E0,3E0,6E0],"tree_param":{"num_deleted":"0","num_feature":"10","num_nodes":"13","size_leaf_vector":"1"}},{"base_weights":[1.1311076E-2,-3.9730854E-2,6.352156E-2,-5.9998516E-2,1.32343145E-2,-1.0814675E-3,9.49456E-2,-8.426026E-3,-1.2540577E-3,5.277105E-4,1.18264835E-2],"categories":[],"categories_nodes":[],"categories_segments":[],"categories_sizes":[],"default_left":[0,0,0,0,0,0,0,0,0,0,0],"id":23,"left_children":[1,3,5,7,-1,-1,9,-1,-1,-1,-1],"loss_changes":[1.8373859E-1,1.3000423E-1,8.044891E-2,3.578853E-2,0E0,0E0,4.9559936E-2,0E0,0E0,0E0,0E0],"parents":[2147483647,0,0,1,1,2,2,3,3,6,6],"right_children":[2,4,6,8,-1,-1,10,-1,-1,-1,-1],"split_conditions":[5.871407E-2,1.702563E0,-6.076144E-1,-2.606464E-1,1.32343145E-2,-1.0814675E-3,-2.9162237E-1,-8.426026E-3,-1.2540577E-3,5.277105E-4,1.18264835E-2],"split_indices":[2,1,7,7,0,0,0,0,0,0,0],"split_type":[0,0,0,0,0,0,0,0,0,0,0],"sum_hessian":[6.7E1,3.4E1,3.3E1,3.1E1,3E0,1E1,2.3E1,2E1,1.1E1,5E0,1.8E1],"tree_param":{"num_deleted":"0","num_feature":"10","num_nodes":"11","size_leaf_vector":"1"}},{"base_weights":[1.3589172E-2,-6.708452E-2,5.792804E-2,1.106349E-3,-1.0243161E-1,3.744609E-2,1.530968E-1,-3.6615406E-3,-1.2492897E-2,6.132414E-3,-4.0320493E-3,4.7513023E-3,2.0694448E-2],"categories":[],"categories_nodes":[],"categories_segments":[],"categories_sizes":[],"default_left":[0,0,0,0,0,0,0,0,0,0,0,0,0],"id":24,"left_children":[1,3,5,-1,7,9,11,-1,-1,-1,-1,-1,-1],"loss_changes":[2.6142865E-1,7.295318E-2,8.58815E-2,0E0,2.2078097E-2,7.674922E-2,3.5650983E-2,0E0,0E0,0E0,0E0,0E0,0E0],"parents":[2147483647,0,0,1,1,2,2,4,4,5,5,6,6],"right_children":[2,4,6,-1,8,10,12,-1,-1,-1,-1,-1,-1],"split_conditions":[-6.371041E-1,-7.093828E-1,9.5289767E-1,1.106349E-3,2.5284338E-1,6.68994E-1,-5.924587E-1,-3.6615406E-3,-1.2492897E-2,6.132414E-3,-4.0320493E-3,4.7513023E-3,2.0694448E-2],"split_indices":[7,7,0,0,3,3,7,0,0,0,0,0,0],"split_type":[0,0,0,0,0,0,0,0,0,0,0,0,0],"sum_hessian":[7.1E1,2.5E1,4.6E1,8E0,1.7E1,3.9E1,7E0,5E0,1.2E1,3E1,9E0,3E0,4E0],"tree_param":{"num_deleted":"0","num_feature":"10","num_nodes":"13","size_leaf_vector":"1"}},{"base_weights":[-2.1576663E-3,-5.0926436E-2,4.281772E-2,1.4789816E-3,-7.780453E-2,-5.6829294E-3,6.826537E-2,-1.2832522E-2,-4.136631E-3,-7.216132E-3,2.8124559E-3,3.6786625E-3,1.4395549E-2],"categories":[],"categories_nodes":[],"categories_segments":[],"categories_sizes":[],"default_left":[0,0,0,0,0,0,0,0,0,0,0,0,0],"id":25,"left_children":[1,3,5,-1,7,9,11,-1,-1,-1,-1,-1,-1],"loss_changes":[1.6010493E-1,6.297217E-2,4.7288597E-2,0E0,4.0713757E-2,3.3494048E-2,5.4270126E-2,0E0,0E0,0E0,0E0,0E0,0E0],"parents":[2147483647,0,0,1,1,2,2,4,4,5,5,6,6],"right_children":[2,4,6,-1,8,10,12,-1,-1,-1,-1,-1,-1],"split_conditions":[-3.9290875E-1,-1.0555129E0,1.0263834E-1,1.4789816E-3,1.1226952E-1,-3.7176996E-1,-6.996303E-1,-1.2832522E-2,-4.136631E-3,-7.216132E-3,2.8124559E-3,3.6786625E-3,1.4395549E-2],"split_indices":[7,4,2,0,5,5,1,0,0,0,0,0,0],"split_type":[0,0,0,0,0,0,0,0,0,0,0,0,0],"sum_hessian":[7.1E1,3.4E1,3.7E1,1E1,2.4E1,1.3E1,2.4E1,9E0,1.5E1,4E0,9E0,1.8E1,6E0],"tree_param":{"num_deleted":"0","num_feature":"10","num_nodes":"13","size_leaf_vector":"1"}},{"base_weights":[-3.2886444E-3,-4.3814275E-2,5.9566803E-2,3.0287568E-2,-5.720453E-2,3.6597528E-2,1.4917254E-1,-8.395443E-3,5.8601345E-3,-6.6697234E-3,2.4482382E-3,-1.8980958E-3,7.252039E-3,1.8255299E-2,-8.86482E-4],"categories":[],"categories_nodes":[],"categories_segments":[],"categories_sizes":[],"default_left":[0,0,0,0,0,0,0,0,0,0,0,0,0,0,0],"id":26,"left_children":[1,3,5,7,9,11,13,-1,-1,-1,-1,-1,-1,-1,-1],"loss_changes":[2.012959E-1,4.9360223E-2,5.8344208E-2,3.0796817E-2,3.3425525E-2,5.32865E-2,3.3270434E-2,0E0,0E0,0E0,0E0,0E0,0E0,0E0,0E0],"parents":[2147483647,0,0,1,1,2,2,3,3,4,4,5,5,6,6],"right_children":[2,4,6,8,10,12,14,-1,-1,-1,-1,-1,-1,-1,-1],"split_conditions":[3.560775E-1,-5.684243E-1,2.0738306E-2,-1.4847778E0,1.801654E0,-4.62941E-1,1.8335855E0,-8.395443E-3,5.8601345E-3,-6.6697234E-3,2.4482382E-3,-1.8980958E-3,7.252039E-3,1.8255299E-2,-8.86482E-4],"split_indices":[2,8,4,0,4,5,0,0,0,0,0,0,0,0,0],"split_type":[0,0,0,0,0,0,0,0,0,0,0,0,0,0,0],"sum_hessian":[7.7E1,4.7E1,3E1,7E0,4E1,2.5E1,5E0,1E0,6E0,3.6E1,4E0,1E1,1.5E1,4E0,1E0],"tree_param":{"num_deleted":"0","num_feature":"10","num_nodes":"15","size_leaf_vector":"1"}},{"base_weights":[4.6608355E-3,7.505528E-2,-2.5393413E-2,1.6460216E-2,4.238093E-2,-4.0225126E-2,1.07237995E-1,7.415162E-3,-2.2928824E-3,2.1771996E-3,-7.4215443E-3,1.826506E-3,1.6046492E-2],"categories":[],"categories_nodes":[],"categories_segments":[],"categories_sizes":[],"default_left":[0,0,0,0,0,0,0,0,0,0,0,0,0],"id":27,"left_children":[1,3,5,-1,7,9,11,-1,-1,-1,-1,-1,-1],"loss_changes":[1.4153896E-1,5.1541716E-2,9.676975E-2,0E0,3.4899183E-2,9.222979E-2,2.0747885E-2,0E0,0E0,0E0,0E0,0E0,0E0],"parents":[2147483647,0,0,1,1,2,2,4,4,5,5,6,6],"right_children":[2,4,6,-1,8,10,12,-1,-1,-1,-1,-1,-1],"split_conditions":[-6.4799917E-1,-4.9241504E-1,4.8220506E-1,1.6460216E-2,-4.8014766E-1,-5.606512E-1,-7.9208575E-2,7.415162E-3,-2.2928824E-3,2.1771996E-3,-7.4215443E-3,1.826506E-3,1.6046492E-2],"split_indices":[3,6,6,0,4,4,0,0,0,0,0,0,0],"split_type":[0,0,0,0,0,0,0,0,0,0,0,0,0],"sum_hessian":[6.5E1,1.9E1,4.6E1,4E0,1.5E1,4.2E1,4E0,1E1,5E0,1.5E1,2.7E1,2E0,2E0],"tree_param":{"num_deleted":"0","num_feature":"10","num_nodes":"13","size_leaf_vector":"1"}},{"base_weights":[5.685491E-4,-2.5493529E-2,6.755825E-2,-3.9544728E-2,9.350686E-3,1.09450705E-1,-1.4198329E-3,4.4400776E-3,-5.700729E-3,-5.287127E-3,1.2600402E-2],"categories":[],"categories_nodes":[],"categories_segments":[],"categories_sizes":[],"default_left":[0,0,0,0,0,0,0,0,0,0,0],"id":28,"left_children":[1,3,5,7,-1,9,-1,-1,-1,-1,-1],"loss_changes":[1.3091822E-1,9.3991004E-2,7.3478654E-2,7.4360415E-2,0E0,4.427956E-2,0E0,0E0,0E0,0E0,0E0],"parents":[2147483647,0,0,1,1,2,2,3,3,5,5],"right_children":[2,4,6,8,-1,10,-1,-1,-1,-1,-1],"split_conditions":[8.5019165E-1,4.8274907E-1,2.237348E0,-5.684243E-1,9.350686E-3,-1.0123311E0,-1.4198329E-3,4.4400776E-3,-5.700729E-3,-5.287127E-3,1.2600402E-2],"split_indices":[9,6,6,8,0,0,0,0,0,0,0],"split_type":[0,0,0,0,0,0,0,0,0,0,0],"sum_hessian":[7.3E1,5.3E1,2E1,4.8E1,5E0,1.3E1,7E0,8E0,4E1,1E0,1.2E1],"tree_param":{"num_deleted":"0","num_feature":"10","num_nodes":"11","size_leaf_vector":"1"}},{"base_weights":[3.6726645E-3,-8.334426E-3,6.3402064E-2,-3.6805876E-2,3.5906326E-2,1.2812619E-2,-2.2676424E-3,1.3992861E-3,-7.2077415E-3,1.2829016E-2,4.8426777E-4],"categories":[],"categories_nodes":[],"categories_segments":[],"categories_sizes":[],"default_left":[0,0,0,0,0,0,0,0,0,0,0],"id":29,"left_children":[1,3,5,7,9,-1,-1,-1,-1,-1,-1],"loss_changes":[5.1447935E-2,7.6897465E-2,6.97617E-2,6.7303315E-2,6.825342E-2,0E0,0E0,0E0,0E0,0E0,0E0],"parents":[2147483647,0,0,1,1,2,2,3,3,4,4],"right_children":[2,4,6,8,10,-1,-1,-1,-1,-1,-1],"split_conditions":[4.8274907E-1,3.0928373E-2,2.2081084E0,-8.975918E-1,-5.215972E-2,1.2812619E-2,-2.2676424E-3,1.3992861E-3,-7.2077415E-3,1.2829016E-2,4.8426777E-4],"split_indices":[6,5,6,4,4,0,0,0,0,0,0],"split_type":[0,0,0,0,0,0,0,0,0,0,0],"sum_hessian":[7E1,5.9E1,1.1E1,3.6E1,2.3E1,6E0,5E0,1.5E1,2.1E1,5E0,1.8E1],"tree_param":{"num_deleted":"0","num_feature":"10","num_nodes":"11","size_leaf_vector":"1"}},{"base_weights":[1.6774472E-2,3.237203E-3,1.0816739E-1,-1.3389825E-2,6.120057E-2,-6.007448E-3,1.3670693E-1,1.5912581E-3,-3.4147091E-3,9.865267E-3,-2.594374E-3,1.5813593E-2,-6.6479744E-4],"categories":[],"categories_nodes":[],"categories_segments":[],"categories_sizes":[],"default_left":[0,0,0,0,0,0,0,0,0,0,0,0,0],"id":30,"left_children":[1,3,5,7,9,-1,11,-1,-1,-1,-1,-1,-1],"loss_changes":[8.625458E-2,6.0572494E-2,5.1426508E-2,3.0347023E-2,4.8251744E-2,0E0,2.5626898E-2,0E0,0E0,0E0,0E0,0E0,0E0],"parents":[2147483647,0,0,1,1,2,2,3,3,4,4,6,6],"right_children":[2,4,6,8,10,-1,12,-1,-1,-1,-1,-1,-1],"split_conditions":[2.1053421E0,4.8220506E-1,-1.0296423E0,-2.6355666E-1,2.237348E0,-6.007448E-3,1.5394397E-1,1.5912581E-3,-3.4147091E-3,9.865267E-3,-2.594374E-3,1.5813593E-2,-6.6479744E-4],"split_indices":[9,6,1,6,6,0,7,0,0,0,0,0,0],"split_type":[0,0,0,0,0,0,0,0,0,0,0,0,0],"sum_hessian":[6.9E1,6.1E1,8E0,4.8E1,1.3E1,1E0,7E0,2E1,2.8E1,9E0,4E0,6E0,1E0],"tree_param":{"num_deleted":"0","num_feature":"10","num_nodes":"13","size_leaf_vector":"1"}},{"base_weights":[1.2746716E-2,6.750017E-2,-7.122385E-3,1.223154E-1,2.5331667E-2,-5.487956E-3,2.8540112E-2,-5.8376626E-3,1.5646806E-2,5.011661E-3,-3.6767372E-3,-1.882987E-3,5.5535096E-3],"categories":[],"categories_nodes":[],"categories_segments":[],"categories_sizes":[],"default_left":[0,0,0,0,0,0,0,0,0,0,0,0,0],"id":31,"left_children":[1,3,5,7,9,-1,11,-1,-1,-1,-1,-1,-1],"loss_changes":[7.772179E-2,4.0819593E-2,9.18327E-2,5.850298E-2,2.0312108E-2,0E0,4.0687025E-2,0E0,0E0,0E0,0E0,0E0,0E0],"parents":[2147483647,0,0,1,1,2,2,3,3,4,4,6,6],"right_children":[2,4,6,8,10,-1,12,-1,-1,-1,-1,-1,-1],"split_conditions":[-4.9241504E-1,-6.510613E-1,-1.9729817E-1,-1.0123311E0,-5.2263427E-1,-5.487956E-3,-3.1837472E-1,-5.8376626E-3,1.5646806E-2,5.011661E-3,-3.6767372E-3,-1.882987E-3,5.5535096E-3],"split_indices":[6,3,6,0,8,0,0,0,0,0,0,0,0],"split_type":[0,0,0,0,0,0,0,0,0,0,0,0,0],"sum_hessian":[7E1,1.8E1,5.2E1,7E0,1.1E1,2.2E1,3E1,1E0,6E0,8E0,3E0,1.1E1,1.9E1],"tree_param":{"num_deleted":"0","num_feature":"10","num_nodes":"13","size_leaf_vector":"1"}},{"base_weights":[4.394498E-3,-3.4568418E-2,3.2003805E-2,3.2586367E-3,-5.1319E-3,1.4595661E-2,9.1472745E-2,-1.0659526E-3,5.504378E-3,-5.523238E-3,1.1391025E-2],"categories":[],"categories_nodes":[],"categories_segments":[],"categories_sizes":[],"default_left":[0,0,0,0,0,0,0,0,0,0,0],"id":32,"left_children":[1,3,5,-1,-1,7,9,-1,-1,-1,-1],"loss_changes":[8.2862504E-2,3.766852E-2,4.5250874E-2,0E0,0E0,3.7361633E-2,3.9208487E-2,0E0,0E0,0E0,0E0],"parents":[2147483647,0,0,1,1,2,2,5,5,6,6],"right_children":[2,4,6,-1,-1,8,10,-1,-1,-1,-1],"split_conditions":[-3.9290875E-1,-7.1458685E-1,5.409599E-1,3.2586367E-3,-5.1319E-3,5.776424E-1,-1.0296423E0,-1.0659526E-3,5.504378E-3,-5.523238E-3,1.1391025E-2],"split_indices":[7,7,5,0,0,2,1,0,0,0,0],"split_type":[0,0,0,0,0,0,0,0,0,0,0],"sum_hessian":[7.5E1,3.1E1,4.4E1,6E0,2.5E1,3.5E1,9E0,2.2E1,1.3E1,1E0,8E0],"tree_param":{"num_deleted":"0","num_feature":"10","num_nodes":"11","size_leaf_vector":"1"}},{"base_weights":[-8.959414E-3,2.3347424E-2,-4.199586E-2,4.192948E-2,-3.996268E-3,3.6001436E-3,-5.1305976E-2,8.003115E-3,1.7050299E-3,-6.009751E-3,4.491983E-3],"categories":[],"categories_nodes":[],"categories_segments":[],"categories_sizes":[],"default_left":[0,0,0,0,0,0,0,0,0,0,0],"id":33,"left_children":[1,3,5,7,-1,-1,9,-1,-1,-1,-1],"loss_changes":[6.9287896E-2,4.049786E-2,2.5084324E-2,2.3281835E-2,0E0,0E0,2.7232774E-2,0E0,0E0,0E0,0E0],"parents":[2147483647,0,0,1,1,2,2,3,3,6,6],"right_children":[2,4,6,8,-1,-1,10,-1,-1,-1,-1],"split_conditions":[-2.986298E-2,8.4429765E-1,-1.0203568E0,-3.8241178E-2,-3.996268E-3,3.6001436E-3,1.801654E0,8.003115E-3,1.7050299E-3,-6.009751E-3,4.491983E-3],"split_indices":[4,2,0,7,0,0,4,0,0,0,0],"split_type":[0,0,0,0,0,0,0,0,0,0,0],"sum_hessian":[6.3E1,3.2E1,3.1E1,2.5E1,7E0,3E0,2.8E1,9E0,1.6E1,2.6E1,2E0],"tree_param":{"num_deleted":"0","num_feature":"10","num_nodes":"11","size_leaf_vector":"1"}},{"base_weights":[-3.7568442E-3,-4.1352198E-2,2.3434151E-2,8.390495E-3,-5.6210086E-2,6.3174345E-2,-7.70576E-4,6.039174E-3,-5.8708685E-3,-6.5906392E-3,3.363282E-3,9.214608E-3,-1.4955421E-3],"categories":[],"categories_nodes":[],"categories_segments":[],"categories_sizes":[],"default_left":[0,0,0,0,0,0,0,0,0,0,0,0,0],"id":34,"left_children":[1,3,5,7,9,11,-1,-1,-1,-1,-1,-1,-1],"loss_changes":[7.559368E-2,2.3382846E-2,5.3699568E-2,3.1459443E-2,2.3124069E-2,4.4385627E-2,0E0,0E0,0E0,0E0,0E0,0E0,0E0],"parents":[2147483647,0,0,1,1,2,2,3,3,4,4,5,5],"right_children":[2,4,6,8,10,12,-1,-1,-1,-1,-1,-1,-1],"split_conditions":[-5.0344258E-3,-5.4517853E-1,-6.510613E-1,5.8883E-1,8.796988E-1,2.132401E0,-7.70576E-4,6.039174E-3,-5.8708685E-3,-6.5906392E-3,3.363282E-3,9.214608E-3,-1.4955421E-3],"split_indices":[2,8,3,3,3,7,0,0,0,0,0,0,0],"split_type":[0,0,0,0,0,0,0,0,0,0,0,0,0],"sum_hessian":[7.2E1,3E1,4.2E1,7E0,2.3E1,1.8E1,2.4E1,4E0,3E0,2.1E1,2E0,1.3E1,5E0],"tree_param":{"num_deleted":"0","num_feature":"10","num_nodes":"13","size_leaf_vector":"1"}},{"base_weights":[6.4329742E-3,-6.675253E-3,5.8406387E-2,-3.2765657E-2,2.2561314E-2,7.778348E-2,-3.8570792E-3,-2.1199721E-3,-1.0264429E-2,-7.52717E-4,4.7133914E-3,1.0049079E-2,-2.3835353E-3],"categories":[],"categories_nodes":[],"categories_segments":[],"categories_sizes":[],"default_left":[0,0,0,0,0,0,0,0,0,0,0,0,0],"id":35,"left_children":[1,3,5,7,9,11,-1,-1,-1,-1,-1,-1,-1],"loss_changes":[4.739815E-2,4.345569E-2,2.9308077E-2,2.2070322E-2,2.0317294E-2,3.008511E-2,0E0,0E0,0E0,0E0,0E0,0E0,0E0],"parents":[2147483647,0,0,1,1,2,2,3,3,4,4,5,5],"right_children":[2,4,6,8,10,12,-1,-1,-1,-1,-1,-1,-1],"split_conditions":[6.6133505E-1,-2.3336498E-1,-1.8133193E-1,-2.4277608E-1,2.9155156E-1,2.7150578E0,-3.8570792E-3,-2.1199721E-3,-1.0264429E-2,-7.52717E-4,4.7133914E-3,1.0049079E-2,-2.3835353E-3],"split_indices":[5,6,6,6,2,8,0,0,0,0,0,0,0],"split_type":[0,0,0,0,0,0,0,0,0,0,0,0,0],"sum_hessian":[6.8E1,5.5E1,1.3E1,2.9E1,2.6E1,1.1E1,2E0,2.6E1,3E0,1.2E1,1.4E1,9E0,2E0],"tree_param":{"num_deleted":"0","num_feature":"10","num_nodes":"13","size_leaf_vector":"1"}},{"base_weights":[1.4193151E-3,-1.4915762E-2,3.828908E-2,2.531515E-3,-2.5097292E-2,1.6405413E-2,8.596527E-2,-3.2971692E-3,3.97676E-3,4.461711E-3,-3.0270885E-3,-2.2246332E-3,1.3369918E-2],"categories":[],"categories_nodes":[],"categories_segments":[],"categories_sizes":[],"default_left":[0,0,0,0,0,0,0,0,0,0,0,0,0],"id":36,"left_children":[1,3,5,-1,7,9,11,-1,-1,-1,-1,-1,-1],"loss_changes":[4.5139123E-2,2.193518E-2,2.2586294E-2,0E0,2.2763629E-2,2.3736497E-2,3.9131857E-2,0E0,0E0,0E0,0E0,0E0,0E0],"parents":[2147483647,0,0,1,1,2,2,4,4,5,5,6,6],"right_children":[2,4,6,-1,8,10,12,-1,-1,-1,-1,-1,-1],"split_conditions":[1.0134486E0,-5.7611644E-1,1.0525618E0,2.531515E-3,1.801654E0,2.4820395E-2,-1.635952E-1,-3.2971692E-3,3.97676E-3,4.461711E-3,-3.0270885E-3,-2.2246332E-3,1.3369918E-2],"split_indices":[8,8,5,0,4,5,7,0,0,0,0,0,0],"split_type":[0,0,0,0,0,0,0,0,0,0,0,0,0],"sum_hessian":[7.3E1,5.1E1,2.2E1,1E1,4.1E1,1.6E1,6E0,3.7E1,4E0,1E1,6E0,2E0,4E0],"tree_param":{"num_deleted":"0","num_feature":"10","num_nodes":"13","size_leaf_vector":"1"}},{"base_weights":[1.0074135E-2,-1.1341773E-2,4.1481376E-2,-4.7513492E-2,1.9273898E-3,3.3154457E-3,8.819979E-2,-2.4086027E-3,-9.816323E-3,-2.3652322E-3,7.2768554E-3,1.5496773E-2,5.267264E-3],"categories":[],"categories_nodes":[],"categories_segments":[],"categories_sizes":[],"default_left":[0,0,0,0,0,0,0,0,0,0,0,0,0],"id":37,"left_children":[1,3,5,7,-1,9,11,-1,-1,-1,-1,-1,-1],"loss_changes":[4.8226107E-2,4.853489E-2,5.1416084E-2,2.1367539E-2,0E0,3.356206E-2,2.2674404E-2,0E0,0E0,0E0,0E0,0E0,0E0],"parents":[2147483647,0,0,1,1,2,2,3,3,5,5,6,6],"right_children":[2,4,6,8,-1,10,12,-1,-1,-1,-1,-1,-1],"split_conditions":[1.7814918E-1,8.228161E-1,-2.993728E-2,1.709994E-2,1.9273898E-3,6.752312E-1,1.0686562E-2,-2.4086027E-3,-9.816323E-3,-2.3652322E-3,7.2768554E-3,1.5496773E-2,5.267264E-3],"split_indices":[0,9,5,0,0,1,1,0,0,0,0,0,0],"split_type":[0,0,0,0,0,0,0,0,0,0,0,0,0],"sum_hessian":[7E1,4.2E1,2.8E1,1.9E1,2.3E1,1.6E1,1.2E1,1.4E1,5E0,1.2E1,4E0,3E0,9E0],"tree_param":{"num_deleted":"0","num_feature":"10","num_nodes":"13","size_leaf_vector":"1"}},{"base_weights":[2.5750953E-3,-7.826905E-3,9.582522E-3,-2.2125505E-3,1.8002206E-2,1.5025514E-2,5.160929E-4],"categories":[],"categories_nodes":[],"categories_segments":[],"categories_sizes":[],"default_left":[0,0,0,0,0,0,0],"id":38,"left_children":[1,3,-1,-1,5,-1,-1],"loss_changes":[6.7679174E-2,2.3665477E-2,0E0,0E0,3.8285363E-2,0E0,0E0],"parents":[2147483647,0,0,1,1,4,4],"right_children":[2,4,-1,-1,6,-1,-1],"split_conditions":[1.2350975E0,6.063603E-2,9.582522E-3,-2.2125505E-3,-7.9968536E-1,1.5025514E-2,5.160929E-4],"split_indices":[5,7,0,0,5,0,0],"split_type":[0,0,0,0,0,0,0],"sum_hessian":[6.8E1,6.2E1,6E0,4E1,2.2E1,1E0,2.1E1],"tree_param":{"num_deleted":"0","num_feature":"10","num_nodes":"7","size_leaf_vector":"1"}},{"base_weights":[6.3432567E-4,-9.510231E-3,8.8946275E-2,-3.4584798E-2,1.28131835E-2,1.2331317E-2,2.0193707E-4,1.0808804E-4,-5.9824153E-3,-6.029275E-4,8.366078E-3],"categories":[],"categories_nodes":[],"categories_segments":[],"categories_sizes":[],"default_left":[0,0,0,0,0,0,0,0,0,0,0],"id":39,"left_children":[1,3,5,7,9,-1,-1,-1,-1,-1,-1],"loss_changes":[6.0870234E-2,3.4587886E-2,2.066284E-2,2.6169848E-2,4.4557534E-2,0E0,0E0,0E0,0E0,0E0,0E0],"parents":[2147483647,0,0,1,1,2,2,3,3,4,4],"right_children":[2,4,6,8,10,-1,-1,-1,-1,-1,-1],"split_conditions":[1.002657E0,-3.9290875E-1,1.1143931E0,-6.606898E-1,1.0525618E0,1.2331317E-2,2.0193707E-4,1.0808804E-4,-5.9824153E-3,-6.029275E-4,8.366078E-3],"split_indices":[0,7,3,7,5,0,0,0,0,0,0],"split_type":[0,0,0,0,0,0,0,0,0,0,0],"sum_hessian":[6.6E1,6E1,6E0,2.8E1,3.2E1,4E0,2E0,1.2E1,1.6E1,2.6E1,6E0],"tree_param":{"num_deleted":"0","num_feature":"10","num_nodes":"11","size_leaf_vector":"1"}},{"base_weights":[5.367512E-3,-5.1025365E-4,5.0603613E-2,1.2149586E-2,2.0224287E-3],"categories":[],"categories_nodes":[],"categories_segments":[],"categories_sizes":[],"default_left":[0,0,0,0,0],"id":40,"left_children":[1,-1,3,-1,-1],"loss_changes":[3.5306394E-2,0E0,2.7694054E-2,0E0,0E0],"parents":[2147483647,0,0,2,2],"right_children":[2,-1,4,-1,-1],"split_conditions":[4.8274907E-1,-5.1025365E-4,-3.8529113E-1,1.2149586E-2,2.0224287E-3],"split_indices":[6,0,5,0,0],"split_type":[0,0,0,0,0],"sum_hessian":[7.3E1,6E1,1.3E1,3E0,1E1],"tree_param":{"num_deleted":"0","num_feature":"10","num_nodes":"5","size_leaf_vector":"1"}},{"base_weights":[2.0281819E-4,3.9468467E-2,-1.3136513E-2,-1.9312697E-3,7.046844E-2,-4.811456E-2,1.9367847E-4,1.11373225E-2,-9.0728997E-4,2.2830165E-3,-7.3665315E-3],"categories":[],"categories_nodes":[],"categories_segments":[],"categories_sizes":[],"default_left":[0,0,0,0,0,0,0,0,0,0,0],"id":41,"left_children":[1,3,5,-1,7,9,-1,-1,-1,-1,-1],"loss_changes":[3.71829E-2,3.4160793E-2,2.8036617E-2,0E0,4.0053938E-2,3.0684851E-2,0E0,0E0,0E0,0E0,0E0],"parents":[2147483647,0,0,1,1,2,2,4,4,5,5],"right_children":[2,4,6,-1,8,10,-1,-1,-1,-1,-1],"split_conditions":[-4.9241504E-1,-4.6852893E-1,-2.4451686E-1,-1.9312697E-3,2.446494E0,-6.682372E-1,1.9367847E-4,1.11373225E-2,-9.0728997E-4,2.2830165E-3,-7.3665315E-3],"split_indices":[6,5,6,0,9,7,0,0,0,0,0],"split_type":[0,0,0,0,0,0,0,0,0,0,0],"sum_hessian":[6.9E1,1.7E1,5.2E1,6E0,1.1E1,1.5E1,3.7E1,7E0,4E0,4E0,1.1E1],"tree_param":{"num_deleted":"0","num_feature":"10","num_nodes":"11","size_leaf_vector":"1"}},{"base_weights":[-2.0499865E-3,2.0897096E-2,-2.1923769E-3,5.37133E-2,-4.1279657E-4,-9.828582E-4,1.0958185E-2,2.6395277E-3,-3.9089704E-3],"categories":[],"categories_nodes":[],"categories_segments":[],"categories_sizes":[],"default_left":[0,0,0,0,0,0,0,0,0],"id":42,"left_children":[1,3,-1,5,7,-1,-1,-1,-1],"loss_changes":[3.238131E-2,2.3099396E-2,0E0,4.722694E-2,2.2805702E-2,0E0,0E0,0E0,0E0],"parents":[2147483647,0,0,1,1,3,3,4,4],"right_children":[2,4,-1,6,8,-1,-1,-1,-1],"split_conditions":[9.9970624E-2,-3.8241178E-2,-2.1923769E-3,-6.568856E-1,8.732176E-1,-9.828582E-4,1.0958185E-2,2.6395277E-3,-3.9089704E-3],"split_indices":[1,7,0,7,9,0,0,0,0],"split_type":[0,0,0,0,0,0,0,0,0],"sum_hessian":[6.9E1,3.2E1,3.7E1,1.2E1,2E1,6E0,6E0,1.2E1,8E0],"tree_param":{"num_deleted":"0","num_feature":"10","num_nodes":"9","size_leaf_vector":"1"}},{"base_weights":[1.2733801E-2,-1.4789717E-2,3.619377E-2,-4.214471E-2,1.5199318E-3,1.9384755E-2,9.470335E-3,-6.695817E-4,-1.0601837E-2,5.2800225E-3,-5.8255694E-4],"categories":[],"categories_nodes":[],"categories_segments":[],"categories_sizes":[],"default_left":[0,0,0,0,0,0,0,0,0,0,0],"id":43,"left_children":[1,3,5,7,-1,9,-1,-1,-1,-1,-1],"loss_changes":[4.444295E-2,2.6891762E-2,3.4553275E-2,3.778238E-2,0E0,2.5580034E-2,0E0,0E0,0E0,0E0,0E0],"parents":[2147483647,0,0,1,1,2,2,3,3,5,5],"right_children":[2,4,6,8,-1,10,-1,-1,-1,-1,-1],"split_conditions":[-3.9290875E-1,1.7814918E-1,5.0419986E-1,-6.606898E-1,1.5199318E-3,-4.8014766E-1,9.470335E-3,-6.695817E-4,-1.0601837E-2,5.2800225E-3,-5.8255694E-4],"split_indices":[7,0,5,7,0,4,0,0,0,0,0],"split_type":[0,0,0,0,0,0,0,0,0,0,0],"sum_hessian":[6.7E1,3.1E1,3.6E1,1.6E1,1.5E1,2.9E1,7E0,1.1E1,5E0,1.2E1,1.7E1],"tree_param":{"num_deleted":"0","num_feature":"10","num_nodes":"11","size_leaf_vector":"1"}},{"base_weights":[-7.840626E-3,3.6112342E-2,-2.3749582E-2,6.8449886E-3,-2.9102007E-3,-3.34888E-2,2.0504012E-3,-3.7862544E-3,7.5104176E-3],"categories":[],"categories_nodes":[],"categories_segments":[],"categories_sizes":[],"default_left":[0,0,0,0,0,0,0,0,0],"id":44,"left_children":[1,3,5,-1,-1,7,-1,-1,-1],"loss_changes":[4.9804863E-2,4.2060595E-2,2.309841E-2,0E0,0E0,2.3266822E-2,0E0,0E0,0E0],"parents":[2147483647,0,0,1,1,2,2,5,5],"right_children":[2,4,6,-1,-1,8,-1,-1,-1],"split_conditions":[-6.510613E-1,-1.7333522E-1,1.1610334E0,6.8449886E-3,-2.9102007E-3,2.35191E0,2.0504012E-3,-3.7862544E-3,7.5104176E-3],"split_indices":[3,6,3,0,0,4,0,0,0],"split_type":[0,0,0,0,0,0,0,0,0],"sum_hessian":[6.9E1,1.8E1,5.1E1,1.2E1,6E0,4.2E1,9E0,4.1E1,1E0],"tree_param":{"num_deleted":"0","num_feature":"10","num_nodes":"9","size_leaf_vector":"1"}},{"base_weights":[1.0621023E-3,3.6695536E-2,-1.3210583E-3,-3.5923587E-3,5.005243E-3],"categories":[],"categories_nodes":[],"categories_segments":[],"categories_sizes":[],"default_left":[0,0,0,0,0],"id":45,"left_children":[1,3,-1,-1,-1],"loss_changes":[3.913721E-2,2.3137305E-2,0E0,0E0,0E0],"parents":[2147483647,0,0,1,1],"right_children":[2,4,-1,-1,-1],"split_conditions":[-7.4694264E-1,-5.8803856E-1,-1.3210583E-3,-3.5923587E-3,5.005243E-3],"split_indices":[3,0,0,0,0],"split_type":[0,0,0,0,0],"sum_hessian":[7.5E1,2.1E1,5.4E1,3E0,1.8E1],"tree_param":{"num_deleted":"0","num_feature":"10","num_nodes":"5","size_leaf_vector":"1"}},{"base_weights":[7.622585E-4,-3.2529966E-3,8.884379E-3,2.164812E-2,-1.5354587E-3,-1.6119907E-3,4.903521E-3],"categories":[],"categories_nodes":[],"categories_segments":[],"categories_sizes":[],"default_left":[0,0,0,0,0,0,0],"id":46,"left_children":[1,3,-1,5,-1,-1,-1],"loss_changes":[2.4338555E-2,2.0221042E-2,0E0,2.354628E-2,0E0,0E0,0E0],"parents":[2147483647,0,0,1,1,3,3],"right_children":[2,4,-1,6,-1,-1,-1],"split_conditions":[1.7832911E0,-4.4224355E-1,8.884379E-3,-1.1998154E0,-1.5354587E-3,-1.6119907E-3,4.903521E-3],"split_indices":[0,3,0,3,0,0,0],"split_type":[0,0,0,0,0,0,0],"sum_hessian":[6.7E1,6.5E1,2E0,2.1E1,4.4E1,9E0,1.2E1],"tree_param":{"num_deleted":"0","num_feature":"10","num_nodes":"7","size_leaf_vector":"1"}},{"base_weights":[6.214078E-3,-1.4579582E-2,4.1730613E-2,-6.309822E-4,-7.6167793E-3,9.2200535E-5,7.932917E-3],"categories":[],"categories_nodes":[],"categories_segments":[],"categories_sizes":[],"default_left":[0,0,0,0,0,0,0],"id":47,"left_children":[1,3,5,-1,-1,-1,-1],"loss_changes":[5.008917E-2,2.142014E-2,3.828547E-2,0E0,0E0,0E0,0E0],"parents":[2147483647,0,0,1,1,2,2],"right_children":[2,4,6,-1,-1,-1,-1],"split_conditions":[1.7814918E-1,1.709994E-2,-5.9349346E-1,-6.309822E-4,-7.6167793E-3,9.2200535E-5,7.932917E-3],"split_indices":[0,0,7,0,0,0,0],"split_type":[0,0,0,0,0,0,0],"sum_hessian":[6.6E1,4.2E1,2.4E1,3.8E1,4E0,1.2E1,1.2E1],"tree_param":{"num_deleted":"0","num_feature":"10","num_nodes":"7","size_leaf_vector":"1"}},{"base_weights":[-4.2470302E-3,-2.8694602E-2,1.8168315E-3,-3.894811E-2,3.241326E-3,1.1404473E-3,-5.714174E-3],"categories":[],"categories_nodes":[],"categories_segments":[],"categories_sizes":[],"default_left":[0,0,0,0,0,0,0],"id":48,"left_children":[1,3,-1,5,-1,-1,-1],"loss_changes":[3.5593383E-2,2.0686105E-2,0E0,2.5386266E-2,0E0,0E0,0E0],"parents":[2147483647,0,0,1,1,3,3],"right_children":[2,4,-1,6,-1,-1,-1],"split_conditions":[-2.4451686E-1,1.1566631E0,1.8168315E-3,-7.245853E-1,3.241326E-3,1.1404473E-3,-5.714174E-3],"split_indices":[6,3,0,3,0,0,0],"split_type":[0,0,0,0,0,0,0],"sum_hessian":[6.3E1,3E1,3.3E1,2.6E1,4E0,7E0,1.9E1],"tree_param":{"num_deleted":"0","num_feature":"10","num_nodes":"7","size_leaf_vector":"1"}},{"base_weights":[-3.0915756E-3,-2.2337008E-2,1.3116532E-3,-2.8004101E-4,-6.308382E-3],"categories":[],"categories_nodes":[],"categories_segments":[],"categories_sizes":[],"default_left":[0,0,0,0,0],"id":49,"left_children":[1,3,-1,-1,-1],"loss_changes":[2.119243E-2,2.4501018E-2,0E0,0E0,0E0],"parents":[2147483647,0,0,1,1],"right_children":[2,4,-1,-1,-1],"split_conditions":[-2.420145E-1,-2.500112E-1,1.3116532E-3,-2.8004101E-4,-6.308382E-3],"split_indices":[6,6,0,0,0],"split_type":[0,0,0,0,0],"sum_hessian":[6.6E1,3E1,3.6E1,2.1E1,9E0],"tree_param":{"num_deleted":"0","num_feature":"10","num_nodes":"5","size_leaf_vector":"1"}},{"base_weights":[5.418116E-3,-4.6558718E-5,8.317612E-3],"categories":[],"categories_nodes":[],"categories_segments":[],"categories_sizes":[],"default_left":[0,0,0],"id":50,"left_children":[1,-1,-1],"loss_changes":[3.2521583E-2,0E0,0E0],"parents":[2147483647,0,0],"right_children":[2,-1,-1],"split_conditions":[9.1870904E-1,-4.6558718E-5,8.317612E-3],"split_indices":[9,0,0],"split_type":[0,0,0],"sum_hessian":[7E1,6.6E1,4E0],"tree_param":{"num_deleted":"0","num_feature":"10","num_nodes":"3","size_leaf_vector":"1"}},{"base_weights":[-2.5093963E-3],"categories":[],"categories_nodes":[],"categories_segments":[],"categories_sizes":[],"default_left":[0],"id":51,"left_children":[-1],"loss_changes":[0E0],"parents":[2147483647],"right_children":[-1],"split_conditions":[-2.5093963E-4],"split_indices":[0],"split_type":[0],"sum_hessian":[6.8E1],"tree_param":{"num_deleted":"0","num_feature":"10","num_nodes":"1","size_leaf_vector":"1"}},{"base_weights":[-1.12029E-3,6.0563464E-2,-8.6758344E-4,-3.4227315E-4,1.094088E-2],"categories":[],"categories_nodes":[],"categories_segments":[],"categories_sizes":[],"default_left":[0,0,0,0,0],"id":52,"left_children":[1,3,-1,-1,-1],"loss_changes":[2.9886862E-2,2.2252465E-2,0E0,0E0,0E0],"parents":[2147483647,0,0,1,1],"right_children":[2,4,-1,-1,-1],"split_conditions":[-6.510699E-1,-6.8171906E-1,-8.6758344E-4,-3.4227315E-4,1.094088E-2],"split_indices":[9,7,0,0,0],"split_type":[0,0,0,0,0],"sum_hessian":[6.2E1,6E0,5.6E1,3E0,3E0],"tree_param":{"num_deleted":"0","num_feature":"10","num_nodes":"5","size_leaf_vector":"1"}},{"base_weights":[-2.7491944E-3],"categories":[],"categories_nodes":[],"categories_segments":[],"categories_sizes":[],"default_left":[0],"id":53,"left_children":[-1],"loss_changes":[0E0],"parents":[2147483647],"right_children":[-1],"split_conditions":[-2.7491944E-4],"split_indices":[0],"split_type":[0],"sum_hessian":[7.3E1],"tree_param":{"num_deleted":"0","num_feature":"10","num_nodes":"1","size_leaf_vector":"1"}},{"base_weights":[2.1322845E-3,-6.5193693E-3,4.1898973E-2,-2.4681317E-3,1.6592689E-2,6.512978E-3,-5.7246974E-3,9.363285E-3,3.061299E-4],"categories":[],"categories_nodes":[],"categories_segments":[],"categories_sizes":[],"default_left":[0,0,0,0,0,0,0,0,0],"id":54,"left_children":[1,3,5,-1,7,-1,-1,-1,-1],"loss_changes":[2.5044585E-2,2.5595129E-2,3.3670604E-2,0E0,2.78598E-2,0E0,0E0,0E0,0E0],"parents":[2147483647,0,0,1,1,2,2,4,4],"right_children":[2,4,6,-1,8,-1,-1,-1,-1],"split_conditions":[4.8274907E-1,3.0928373E-2,1.0641007E0,-2.4681317E-3,-6.428415E-1,6.512978E-3,-5.7246974E-3,9.363285E-3,3.061299E-4],"split_indices":[6,5,8,0,9,0,0,0,0],"split_type":[0,0,0,0,0,0,0,0,0],"sum_hessian":[7.1E1,5.9E1,1.2E1,3.3E1,2.6E1,1E1,2E0,3E0,2.3E1],"tree_param":{"num_deleted":"0","num_feature":"10","num_nodes":"9","size_leaf_vector":"1"}},{"base_weights":[6.111235E-3,-5.000894E-3,3.6021408E-2,-1.3468761E-2,4.773042E-3,-7.064231E-5,9.3837485E-2,5.1140203E-3,-2.140661E-3,1.4743037E-2,1.678523E-3],"categories":[],"categories_nodes":[],"categories_segments":[],"categories_sizes":[],"default_left":[0,0,0,0,0,0,0,0,0,0,0],"id":55,"left_children":[1,3,5,7,-1,-1,9,-1,-1,-1,-1],"loss_changes":[2.2116274E-2,2.2522438E-2,3.828855E-2,2.314755E-2,0E0,0E0,2.6431512E-2,0E0,0E0,0E0,0E0],"parents":[2147483647,0,0,1,1,2,2,3,3,6,6],"right_children":[2,4,6,8,-1,-1,10,-1,-1,-1,-1],"split_conditions":[5.9552306E-1,1.3477635E0,-9.990899E-1,-9.097223E-1,4.773042E-3,-7.064231E-5,8.3613473E-1,5.1140203E-3,-2.140661E-3,1.4743037E-2,1.678523E-3],"split_indices":[2,4,4,4,0,0,2,0,0,0,0],"split_type":[0,0,0,0,0,0,0,0,0,0,0],"sum_hessian":[6.5E1,4.8E1,1.7E1,4.2E1,6E0,1.1E1,6E0,4E0,3.8E1,3E0,3E0],"tree_param":{"num_deleted":"0","num_feature":"10","num_nodes":"11","size_leaf_vector":"1"}},{"base_weights":[5.8616586E-3,-2.964851E-4,7.159794E-3,4.7448548E-4,-6.1741536E-3],"categories":[],"categories_nodes":[],"categories_segments":[],"categories_sizes":[],"default_left":[0,0,0,0,0],"id":56,"left_children":[1,3,-1,-1,-1],"loss_changes":[2.8358173E-2,2.0427704E-2,0E0,0E0,0E0],"parents":[2147483647,0,0,1,1],"right_children":[2,4,-1,-1,-1],"split_conditions":[1.0896116E0,9.28563E-1,7.159794E-3,4.7448548E-4,-6.1741536E-3],"split_indices":[3,3,0,0,0],"split_type":[0,0,0,0,0],"sum_hessian":[6.9E1,6.4E1,5E0,6E1,4E0],"tree_param":{"num_deleted":"0","num_feature":"10","num_nodes":"5","size_leaf_vector":"1"}},{"base_weights":[2.075832E-3],"categories":[],"categories_nodes":[],"categories_segments":[],"categories_sizes":[],"default_left":[0],"id":57,"left_children":[-1],"loss_changes":[0E0],"parents":[2147483647],"right_children":[-1],"split_conditions":[2.0758322E-4],"split_indices":[0],"split_type":[0],"sum_hessian":[6.5E1],"tree_param":{"num_deleted":"0","num_feature":"10","num_nodes":"1","size_leaf_vector":"1"}},{"base_weights":[5.699155E-3],"categories":[],"categories_nodes":[],"categories_segments":[],"categories_sizes":[],"default_left":[0],"id":58,"left_children":[-1],"loss_changes":[0E0],"parents":[2147483647],"right_children":[-1],"split_conditions":[5.699155E-4],"split_indices":[0],"split_type":[0],"sum_hessian":[7.9E1],"tree_param":{"num_deleted":"0","num_feature":"10","num_nodes":"1","size_leaf_vector":"1"}},{"base_weights":[-1.0414368E-3],"categories":[],"categories_nodes":[],"categories_segments":[],"categories_sizes":[],"default_left":[0],"id":59,"left_children":[-1],"loss_changes":[0E0],"parents":[2147483647],"right_children":[-1],"split_conditions":[-1.04143684E-4],"split_indices":[0],"split_type":[0],"sum_hessian":[7E1],"tree_param":{"num_deleted":"0","num_feature":"10","num_nodes":"1","size_leaf_vector":"1"}},{"base_weights":[-1.4915989E-3,-1.2670028E-3,2.398172E-2,3.0739125E-4,7.922356E-3],"categories":[],"categories_nodes":[],"categories_segments":[],"categories_sizes":[],"default_left":[0,0,0,0,0],"id":60,"left_children":[1,-1,3,-1,-1],"loss_changes":[2.0521218E-2,0E0,2.516616E-2,0E0,0E0],"parents":[2147483647,0,0,2,2],"right_children":[2,-1,4,-1,-1],"split_conditions":[4.4343618E-1,-1.2670028E-3,1.7814918E-1,3.0739125E-4,7.922356E-3],"split_indices":[5,0,0,0,0],"split_type":[0,0,0,0,0],"sum_hessian":[7E1,4.9E1,2.1E1,1.6E1,5E0],"tree_param":{"num_deleted":"0","num_feature":"10","num_nodes":"5","size_leaf_vector":"1"}},{"base_weights":[-2.4356083E-3],"categories":[],"categories_nodes":[],"categories_segments":[],"categories_sizes":[],"default_left":[0],"id":61,"left_children":[-1],"loss_changes":[0E0],"parents":[2147483647],"right_children":[-1],"split_conditions":[-2.4356083E-4],"split_indices":[0],"split_type":[0],"sum_hessian":[7E1],"tree_param":{"num_deleted":"0","num_feature":"10","num_nodes":"1","size_leaf_vector":"1"}},{"base_weights":[8.4414653E-4,-2.0077247E-3,1.6379436E-2,6.1848788E-3,-3.6924073E-4],"categories":[],"categories_nodes":[],"categories_segments":[],"categories_sizes":[],"default_left":[0,0,0,0,0],"id":62,"left_children":[1,-1,3,-1,-1],"loss_changes":[2.2105189E-2,0E0,3.5821863E-2,0E0,0E0],"parents":[2147483647,0,0,2,2],"right_children":[2,-1,4,-1,-1],"split_conditions":[-5.9349346E-1,-2.0077247E-3,-5.6172377E-1,6.1848788E-3,-3.6924073E-4],"split_indices":[7,0,9,0,0],"split_type":[0,0,0,0,0],"sum_hessian":[6.6E1,2.8E1,3.8E1,1.1E1,2.7E1],"tree_param":{"num_deleted":"0","num_feature":"10","num_nodes":"5","size_leaf_vector":"1"}},{"base_weights":[-7.546235E-3],"categories":[],"categories_nodes":[],"categories_segments":[],"categories_sizes":[],"default_left":[0],"id":63,"left_children":[-1],"loss_changes":[0E0],"parents":[2147483647],"right_children":[-1],"split_conditions":[-7.546235E-4],"split_indices":[0],"split_type":[0],"sum_hessian":[6.9E1],"tree_param":{"num_deleted":"0","num_feature":"10","num_nodes":"1","size_leaf_vector":"1"}},{"base_weights":[5.562916E-3,3.309877E-3,-6.530127E-4],"categories":[],"categories_nodes":[],"categories_segments":[],"categories_sizes":[],"default_left":[0,0,0],"id":64,"left_children":[1,-1,-1],"loss_changes":[2.1860635E-2,0E0,0E0],"parents":[2147483647,0,0],"right_children":[2,-1,-1],"split_conditions":[-4.4224355E-1,3.309877E-3,-6.530127E-4],"split_indices":[3,0,0],"split_type":[0,0,0],"sum_hessian":[6.4E1,1.9E1,4.5E1],"tree_param":{"num_deleted":"0","num_feature":"10","num_nodes":"3","size_leaf_vector":"1"}},{"base_weights":[-1.72883E-3],"categories":[],"categories_nodes":[],"categories_segments":[],"categories_sizes":[],"default_left":[0],"id":65,"left_children":[-1],"loss_changes":[0E0],"parents":[2147483647],"right_children":[-1],"split_conditions":[-1.7288301E-4],"split_indices":[0],"split_type":[0],"sum_hessian":[6.9E1],"tree_param":{"num_deleted":"0","num_feature":"10","num_nodes":"1","size_leaf_vector":"1"}},{"base_weights":[-7.574316E-4],"categories":[],"categories_nodes":[],"categories_segments":[],"categories_sizes":[],"default_left":[0],"id":66,"left_children":[-1],"loss_changes":[0E0],"parents":[2147483647],"right_children":[-1],"split_conditions":[-7.574316E-5],"split_indices":[0],"split_type":[0],"sum_hessian":[6.5E1],"tree_param":{"num_deleted":"0","num_feature":"10","num_nodes":"1","size_leaf_vector":"1"}},{"base_weights":[-4.8187654E-3],"categories":[],"categories_nodes":[],"categories_segments":[],"categories_sizes":[],"default_left":[0],"id":67,"left_children":[-1],"loss_changes":[0E0],"parents":[2147483647],"right_children":[-1],"split_conditions":[-4.8187654E-4],"split_indices":[0],"split_type":[0],"sum_hessian":[7.4E1],"tree_param":{"num_deleted":"0","num_feature":"10","num_nodes":"1","size_leaf_vector":"1"}},{"base_weights":[9.294884E-4,-1.9672872E-3,1.8566523E-3],"categories":[],"categories_nodes":[],"categories_segments":[],"categories_sizes":[],"default_left":[0,0,0],"id":68,"left_children":[1,-1,-1],"loss_changes":[2.8344324E-2,0E0,0E0],"parents":[2147483647,0,0],"right_children":[2,-1,-1],"split_conditions":[-2.606464E-1,-1.9672872E-3,1.8566523E-3],"split_indices":[7,0,0],"split_type":[0,0,0],"sum_hessian":[7.6E1,3.5E1,4.1E1],"tree_param":{"num_deleted":"0","num_feature":"10","num_nodes":"3","size_leaf_vector":"1"}},{"base_weights":[6.416247E-4],"categories":[],"categories_nodes":[],"categories_segments":[],"categories_sizes":[],"default_left":[0],"id":69,"left_children":[-1],"loss_changes":[0E0],"parents":[2147483647],"right_children":[-1],"split_conditions":[6.416247E-5],"split_indices":[0],"split_type":[0],"sum_hessian":[7.6E1],"tree_param":{"num_deleted":"0","num_feature":"10","num_nodes":"1","size_leaf_vector":"1"}},{"base_weights":[4.4267406E-3],"categories":[],"categories_nodes":[],"categories_segments":[],"categories_sizes":[],"default_left":[0],"id":70,"left_children":[-1],"loss_changes":[0E0],"parents":[2147483647],"right_children":[-1],"split_conditions":[4.4267406E-4],"split_indices":[0],"split_type":[0],"sum_hessian":[7.3E1],"tree_param":{"num_deleted":"0","num_feature":"10","num_nodes":"1","size_leaf_vector":"1"}},{"base_weights":[-1.279888E-3],"categories":[],"categories_nodes":[],"categories_segments":[],"categories_sizes":[],"default_left":[0],"id":71,"left_children":[-1],"loss_changes":[0E0],"parents":[2147483647],"right_children":[-1],"split_conditions":[-1.279888E-4],"split_indices":[0],"split_type":[0],"sum_hessian":[7.6E1],"tree_param":{"num_deleted":"0","num_feature":"10","num_nodes":"1","size_leaf_vector":"1"}},{"base_weights":[-3.6903998E-4,-1.2610101E-3,2.0748962E-2,-2.3868056E-3,5.3723534E-3,-1.5252262E-3,1.08162975E-2],"categories":[],"categories_nodes":[],"categories_segments":[],"categories_sizes":[],"default_left":[0,0,0,0,0,0,0],"id":72,"left_children":[1,-1,3,5,-1,-1,-1],"loss_changes":[2.0425173E-2,0E0,2.2252094E-2,2.7250648E-2,0E0,0E0,0E0],"parents":[2147483647,0,0,2,2,3,3],"right_children":[2,-1,4,6,-1,-1,-1],"split_conditions":[1.5621224E-1,-1.2610101E-3,-2.993728E-2,4.8274907E-1,5.3723534E-3,-1.5252262E-3,1.08162975E-2],"split_indices":[0,0,5,6,0,0,0],"split_type":[0,0,0,0,0,0,0],"sum_hessian":[7.7E1,4.9E1,2.8E1,1.7E1,1.1E1,1.6E1,1E0],"tree_param":{"num_deleted":"0","num_feature":"10","num_nodes":"7","size_leaf_vector":"1"}},{"base_weights":[3.4443235E-3],"categories":[],"categories_nodes":[],"categories_segments":[],"categories_sizes":[],"default_left":[0],"id":73,"left_children":[-1],"loss_changes":[0E0],"parents":[2147483647],"right_children":[-1],"split_conditions":[3.4443237E-4],"split_indices":[0],"split_type":[0],"sum_hessian":[7.7E1],"tree_param":{"num_deleted":"0","num_feature":"10","num_nodes":"1","size_leaf_vector":"1"}},{"base_weights":[-2.9298882E-3],"categories":[],"categories_nodes":[],"categories_segments":[],"categories_sizes":[],"default_left":[0],"id":74,"left_children":[-1],"loss_changes":[0E0],"parents":[2147483647],"right_children":[-1],"split_conditions":[-2.929888E-4],"split_indices":[0],"split_type":[0],"sum_hessian":[6.9E1],"tree_param":{"num_deleted":"0","num_feature":"10","num_nodes":"1","size_leaf_vector":"1"}},{"base_weights":[1.5049821E-3],"categories":[],"categories_nodes":[],"categories_segments":[],"categories_sizes":[],"default_left":[0],"id":75,"left_children":[-1],"loss_changes":[0E0],"parents":[2147483647],"right_children":[-1],"split_conditions":[1.5049822E-4],"split_indices":[0],"split_type":[0],"sum_hessian":[7.7E1],"tree_param":{"num_deleted":"0","num_feature":"10","num_nodes":"1","size_leaf_vector":"1"}},{"base_weights":[3.33033E-3],"categories":[],"categories_nodes":[],"categories_segments":[],"categories_sizes":[],"default_left":[0],"id":76,"left_children":[-1],"loss_changes":[0E0],"parents":[2147483647],"right_children":[-1],"split_conditions":[3.33033E-4],"split_indices":[0],"split_type":[0],"sum_hessian":[6.6E1],"tree_param":{"num_deleted":"0","num_feature":"10","num_nodes":"1","size_leaf_vector":"1"}},{"base_weights":[4.7354563E-3],"categories":[],"categories_nodes":[],"categories_segments":[],"categories_sizes":[],"default_left":[0],"id":77,"left_children":[-1],"loss_changes":[0E0],"parents":[2147483647],"right_children":[-1],"split_conditions":[4.7354563E-4],"split_indices":[0],"split_type":[0],"sum_hessian":[8E1],"tree_param":{"num_deleted":"0","num_feature":"10","num_nodes":"1","size_leaf_vector":"1"}},{"base_weights":[-4.486618E-3],"categories":[],"categories_nodes":[],"categories_segments":[],"categories_sizes":[],"default_left":[0],"id":78,"left_children":[-1],"loss_changes":[0E0],"parents":[2147483647],"right_children":[-1],"split_conditions":[-4.4866183E-4],"split_indices":[0],"split_type":[0],"sum_hessian":[6.8E1],"tree_param":{"num_deleted":"0","num_feature":"10","num_nodes":"1","size_leaf_vector":"1"}},{"base_weights":[4.9564586E-4],"categories":[],"categories_nodes":[],"categories_segments":[],"categories_sizes":[],"default_left":[0],"id":79,"left_children":[-1],"loss_changes":[0E0],"parents":[2147483647],"right_children":[-1],"split_conditions":[4.9564587E-5],"split_indices":[0],"split_type":[0],"sum_hessian":[6.9E1],"tree_param":{"num_deleted":"0","num_feature":"10","num_nodes":"1","size_leaf_vector":"1"}},{"base_weights":[-1.5841201E-3],"categories":[],"categories_nodes":[],"categories_segments":[],"categories_sizes":[],"default_left":[0],"id":80,"left_children":[-1],"loss_changes":[0E0],"parents":[2147483647],"right_children":[-1],"split_conditions":[-1.5841202E-4],"split_indices":[0],"split_type":[0],"sum_hessian":[6.7E1],"tree_param":{"num_deleted":"0","num_feature":"10","num_nodes":"1","size_leaf_vector":"1"}},{"base_weights":[-6.280459E-3],"categories":[],"categories_nodes":[],"categories_segments":[],"categories_sizes":[],"default_left":[0],"id":81,"left_children":[-1],"loss_changes":[0E0],"parents":[2147483647],"right_children":[-1],"split_conditions":[-6.2804593E-4],"split_indices":[0],"split_type":[0],"sum_hessian":[5.8E1],"tree_param":{"num_deleted":"0","num_feature":"10","num_nodes":"1","size_leaf_vector":"1"}},{"base_weights":[-2.1126964E-3],"categories":[],"categories_nodes":[],"categories_segments":[],"categories_sizes":[],"default_left":[0],"id":82,"left_children":[-1],"loss_changes":[0E0],"parents":[2147483647],"right_children":[-1],"split_conditions":[-2.1126964E-4],"split_indices":[0],"split_type":[0],"sum_hessian":[6.9E1],"tree_param":{"num_deleted":"0","num_feature":"10","num_nodes":"1","size_leaf_vector":"1"}},{"base_weights":[-3.8592045E-3,5.2493364E-3,-9.081958E-4],"categories":[],"categories_nodes":[],"categories_segments":[],"categories_sizes":[],"default_left":[0,0,0],"id":83,"left_children":[1,-1,-1],"loss_changes":[2.0784514E-2,0E0,0E0],"parents":[2147483647,0,0],"right_children":[2,-1,-1],"split_conditions":[-6.510699E-1,5.2493364E-3,-9.081958E-4],"split_indices":[9,0,0],"split_type":[0,0,0],"sum_hessian":[6.8E1,5E0,6.3E1],"tree_param":{"num_deleted":"0","num_feature":"10","num_nodes":"3","size_leaf_vector":"1"}},{"base_weights":[-6.625374E-5],"categories":[],"categories_nodes":[],"categories_segments":[],"categories_sizes":[],"default_left":[0],"id":84,"left_children":[-1],"loss_changes":[0E0],"parents":[2147483647],"right_children":[-1],"split_conditions":[-6.625374E-6],"split_indices":[0],"split_type":[0],"sum_hessian":[7.1E1],"tree_param":{"num_deleted":"0","num_feature":"10","num_nodes":"1","size_leaf_vector":"1"}},{"base_weights":[2.7159003E-3],"categories":[],"categories_nodes":[],"categories_segments":[],"categories_sizes":[],"default_left":[0],"id":85,"left_children":[-1],"loss_changes":[0E0],"parents":[2147483647],"right_children":[-1],"split_conditions":[2.7159005E-4],"split_indices":[0],"split_type":[0],"sum_hessian":[7E1],"tree_param":{"num_deleted":"0","num_feature":"10","num_nodes":"1","size_leaf_vector":"1"}},{"base_weights":[1.4844335E-3],"categories":[],"categories_nodes":[],"categories_segments":[],"categories_sizes":[],"default_left":[0],"id":86,"left_children":[-1],"loss_changes":[0E0],"parents":[2147483647],"right_children":[-1],"split_conditions":[1.4844336E-4],"split_indices":[0],"split_type":[0],"sum_hessian":[6.9E1],"tree_param":{"num_deleted":"0","num_feature":"10","num_nodes":"1","size_leaf_vector":"1"}},{"base_weights":[3.3337155E-3],"categories":[],"categories_nodes":[],"categories_segments":[],"categories_sizes":[],"default_left":[0],"id":87,"left_children":[-1],"loss_changes":[0E0],"parents":[2147483647],"right_children":[-1],"split_conditions":[3.3337154E-4],"split_indices":[0],"split_type":[0],"sum_hessian":[6.8E1],"tree_param":{"num_deleted":"0","num_feature":"10","num_nodes":"1","size_leaf_vector":"1"}},{"base_weights":[-5.1953928E-3],"categories":[],"categories_nodes":[],"categories_segments":[],"categories_sizes":[],"default_left":[0],"id":88,"left_children":[-1],"loss_changes":[0E0],"parents":[2147483647],"right_children":[-1],"split_conditions":[-5.195393E-4],"split_indices":[0],"split_type":[0],"sum_hessian":[6.6E1],"tree_param":{"num_deleted":"0","num_feature":"10","num_nodes":"1","size_leaf_vector":"1"}},{"base_weights":[5.6553176E-3],"categories":[],"categories_nodes":[],"categories_segments":[],"categories_sizes":[],"default_left":[0],"id":89,"left_children":[-1],"loss_changes":[0E0],"parents":[2147483647],"right_children":[-1],"split_conditions":[5.655318E-4],"split_indices":[0],"split_type":[0],"sum_hessian":[7.2E1],"tree_param":{"num_deleted":"0","num_feature":"10","num_nodes":"1","size_leaf_vector":"1"}},{"base_weights":[4.316926E-3,-7.0606277E-4,3.1200773E-3],"categories":[],"categories_nodes":[],"categories_segments":[],"categories_sizes":[],"default_left":[0,0,0],"id":90,"left_children":[1,-1,-1],"loss_changes":[2.1631366E-2,0E0,0E0],"parents":[2147483647,0,0],"right_children":[2,-1,-1],"split_conditions":[6.7579633E-1,-7.0606277E-4,3.1200773E-3],"split_indices":[1,0,0],"split_type":[0,0,0],"sum_hessian":[6.9E1,4.9E1,2E1],"tree_param":{"num_deleted":"0","num_feature":"10","num_nodes":"3","size_leaf_vector":"1"}},{"base_weights":[3.07516E-3],"categories":[],"categories_nodes":[],"categories_segments":[],"categories_sizes":[],"default_left":[0],"id":91,"left_children":[-1],"loss_changes":[0E0],"parents":[2147483647],"right_children":[-1],"split_conditions":[3.0751602E-4],"split_indices":[0],"split_type":[0],"sum_hessian":[7.8E1],"tree_param":{"num_deleted":"0","num_feature":"10","num_nodes":"1","size_leaf_vector":"1"}},{"base_weights":[-2.3623607E-3,6.621346E-3,-7.4447E-4],"categories":[],"categories_nodes":[],"categories_segments":[],"categories_sizes":[],"default_left":[0,0,0],"id":92,"left_children":[1,-1,-1],"loss_changes":[2.5238255E-2,0E0,0E0],"parents":[2147483647,0,0],"right_children":[2,-1,-1],"split_conditions":[-6.428415E-1,6.621346E-3,-7.4447E-4],"split_indices":[9,0,0],"split_type":[0,0,0],"sum_hessian":[7E1,4E0,6.6E1],"tree_param":{"num_deleted":"0","num_feature":"10","num_nodes":"3","size_leaf_vector":"1"}},{"base_weights":[-4.317699E-3],"categories":[],"categories_nodes":[],"categories_segments":[],"categories_sizes":[],"default_left":[0],"id":93,"left_children":[-1],"loss_changes":[0E0],"parents":[2147483647],"right_children":[-1],"split_conditions":[-4.317699E-4],"split_indices":[0],"split_type":[0],"sum_hessian":[6.3E1],"tree_param":{"num_deleted":"0","num_feature":"10","num_nodes":"1","size_leaf_vector":"1"}},{"base_weights":[6.2182866E-4],"categories":[],"categories_nodes":[],"categories_segments":[],"categories_sizes":[],"default_left":[0],"id":94,"left_children":[-1],"loss_changes":[0E0],"parents":[2147483647],"right_children":[-1],"split_conditions":[6.2182866E-5],"split_indices":[0],"split_type":[0],"sum_hessian":[7.4E1],"tree_param":{"num_deleted":"0","num_feature":"10","num_nodes":"1","size_leaf_vector":"1"}},{"base_weights":[2.426257E-3],"categories":[],"categories_nodes":[],"categories_segments":[],"categories_sizes":[],"default_left":[0],"id":95,"left_children":[-1],"loss_changes":[0E0],"parents":[2147483647],"right_children":[-1],"split_conditions":[2.426257E-4],"split_indices":[0],"split_type":[0],"sum_hessian":[7.1E1],"tree_param":{"num_deleted":"0","num_feature":"10","num_nodes":"1","size_leaf_vector":"1"}},{"base_weights":[7.4342275E-3],"categories":[],"categories_nodes":[],"categories_segments":[],"categories_sizes":[],"default_left":[0],"id":96,"left_children":[-1],"loss_changes":[0E0],"parents":[2147483647],"right_children":[-1],"split_conditions":[7.434228E-4],"split_indices":[0],"split_type":[0],"sum_hessian":[6.5E1],"tree_param":{"num_deleted":"0","num_feature":"10","num_nodes":"1","size_leaf_vector":"1"}},{"base_weights":[7.640016E-4],"categories":[],"categories_nodes":[],"categories_segments":[],"categories_sizes":[],"default_left":[0],"id":97,"left_children":[-1],"loss_changes":[0E0],"parents":[2147483647],"right_children":[-1],"split_conditions":[7.640017E-5],"split_indices":[0],"split_type":[0],"sum_hessian":[7.2E1],"tree_param":{"num_deleted":"0","num_feature":"10","num_nodes":"1","size_leaf_vector":"1"}},{"base_weights":[5.829814E-3,-1.6804555E-3,2.452985E-2,3.3254828E-3,-5.358369E-3],"categories":[],"categories_nodes":[],"categories_segments":[],"categories_sizes":[],"default_left":[0,0,0,0,0],"id":98,"left_children":[1,-1,3,-1,-1],"loss_changes":[2.7924344E-2,0E0,2.631732E-2,0E0,0E0],"parents":[2147483647,0,0,2,2],"right_children":[2,-1,4,-1,-1],"split_conditions":[-4.9820736E-1,-1.6804555E-3,2.237348E0,3.3254828E-3,-5.358369E-3],"split_indices":[7,0,6,0,0],"split_type":[0,0,0,0,0],"sum_hessian":[6.4E1,2.9E1,3.5E1,3.2E1,3E0],"tree_param":{"num_deleted":"0","num_feature":"10","num_nodes":"5","size_leaf_vector":"1"}},{"base_weights":[4.0480387E-3],"categories":[],"categories_nodes":[],"categories_segments":[],"categories_sizes":[],"default_left":[0],"id":99,"left_children":[-1],"loss_changes":[0E0],"parents":[2147483647],"right_children":[-1],"split_conditions":[4.0480387E-4],"split_indices":[0],"split_type":[0],"sum_hessian":[7.7E1],"tree_param":{"num_deleted":"0","num_feature":"10","num_nodes":"1","size_leaf_vector":"1"}},{"base_weights":[9.1897487E-4],"categories":[],"categories_nodes":[],"categories_segments":[],"categories_sizes":[],"default_left":[0],"id":100,"left_children":[-1],"loss_changes":[0E0],"parents":[2147483647],"right_children":[-1],"split_conditions":[9.189749E-5],"split_indices":[0],"split_type":[0],"sum_hessian":[7.4E1],"tree_param":{"num_deleted":"0","num_feature":"10","num_nodes":"1","size_leaf_vector":"1"}},{"base_weights":[1.346148E-3],"categories":[],"categories_nodes":[],"categories_segments":[],"categories_sizes":[],"default_left":[0],"id":101,"left_children":[-1],"loss_changes":[0E0],"parents":[2147483647],"right_children":[-1],"split_conditions":[1.346148E-4],"split_indices":[0],"split_type":[0],"sum_hessian":[6.4E1],"tree_param":{"num_deleted":"0","num_feature":"10","num_nodes":"1","size_leaf_vector":"1"}},{"base_weights":[-1.346007E-3],"categories":[],"categories_nodes":[],"categories_segments":[],"categories_sizes":[],"default_left":[0],"id":102,"left_children":[-1],"loss_changes":[0E0],"parents":[2147483647],"right_children":[-1],"split_conditions":[-1.346007E-4],"split_indices":[0],"split_type":[0],"sum_hessian":[6.5E1],"tree_param":{"num_deleted":"0","num_feature":"10","num_nodes":"1","size_leaf_vector":"1"}},{"base_weights":[-1.7098653E-3],"categories":[],"categories_nodes":[],"categories_segments":[],"categories_sizes":[],"default_left":[0],"id":103,"left_children":[-1],"loss_changes":[0E0],"parents":[2147483647],"right_children":[-1],"split_conditions":[-1.7098653E-4],"split_indices":[0],"split_type":[0],"sum_hessian":[7.8E1],"tree_param":{"num_deleted":"0","num_feature":"10","num_nodes":"1","size_leaf_vector":"1"}},{"base_weights":[5.766033E-3],"categories":[],"categories_nodes":[],"categories_segments":[],"categories_sizes":[],"default_left":[0],"id":104,"left_children":[-1],"loss_changes":[0E0],"parents":[2147483647],"right_children":[-1],"split_conditions":[5.7660334E-4],"split_indices":[0],"split_type":[0],"sum_hessian":[6.8E1],"tree_param":{"num_deleted":"0","num_feature":"10","num_nodes":"1","size_leaf_vector":"1"}},{"base_weights":[-1.6669215E-3,-1.2658276E-3,3.4349298E-3],"categories":[],"categories_nodes":[],"categories_segments":[],"categories_sizes":[],"default_left":[0,0,0],"id":105,"left_children":[1,-1,-1],"loss_changes":[2.5374426E-2,0E0,0E0],"parents":[2147483647,0,0],"right_children":[2,-1,-1],"split_conditions":[5.9552306E-1,-1.2658276E-3,3.4349298E-3],"split_indices":[2,0,0],"split_type":[0,0,0],"sum_hessian":[6.2E1,4.8E1,1.4E1],"tree_param":{"num_deleted":"0","num_feature":"10","num_nodes":"3","size_leaf_vector":"1"}},{"base_weights":[-4.8712426E-4,-1.5101272E-3,2.2914996E-2,6.848575E-3,-6.998915E-3,-4.135935E-3,5.7161706E-3],"categories":[],"categories_nodes":[],"categories_segments":[],"categories_sizes":[],"default_left":[0,0,0,0,0,0,0],"id":106,"left_children":[1,-1,3,-1,5,-1,-1],"loss_changes":[2.2234175E-2,0E0,3.4559317E-2,0E0,3.763756E-2,0E0,0E0],"parents":[2147483647,0,0,2,2,4,4],"right_children":[2,-1,4,-1,6,-1,-1],"split_conditions":[1.5621224E-1,-1.5101272E-3,5.350257E-1,6.848575E-3,5.565385E-1,-4.135935E-3,5.7161706E-3],"split_indices":[0,0,0,0,4,0,0],"split_type":[0,0,0,0,0,0,0],"sum_hessian":[6.3E1,3.9E1,2.4E1,9E0,1.5E1,1E1,5E0],"tree_param":{"num_deleted":"0","num_feature":"10","num_nodes":"7","size_leaf_vector":"1"}},{"base_weights":[-5.063858E-3],"categories":[],"categories_nodes":[],"categories_segments":[],"categories_sizes":[],"default_left":[0],"id":107,"left_children":[-1],"loss_changes":[0E0],"parents":[2147483647],"right_children":[-1],"split_conditions":[-5.063858E-4],"split_indices":[0],"split_type":[0],"sum_hessian":[7E1],"tree_param":{"num_deleted":"0","num_feature":"10","num_nodes":"1","size_leaf_vector":"1"}},{"base_weights":[-6.7117773E-3],"categories":[],"categories_nodes":[],"categories_segments":[],"categories_sizes":[],"default_left":[0],"id":108,"left_children":[-1],"loss_changes":[0E0],"parents":[2147483647],"right_children":[-1],"split_conditions":[-6.7117775E-4],"split_indices":[0],"split_type":[0],"sum_hessian":[7.4E1],"tree_param":{"num_deleted":"0","num_feature":"10","num_nodes":"1","size_leaf_vector":"1"}},{"base_weights":[-3.909571E-4],"categories":[],"categories_nodes":[],"categories_segments":[],"categories_sizes":[],"default_left":[0],"id":109,"left_children":[-1],"loss_changes":[0E0],"parents":[2147483647],"right_children":[-1],"split_conditions":[-3.909571E-5],"split_indices":[0],"split_type":[0],"sum_hessian":[7.2E1],"tree_param":{"num_deleted":"0","num_feature":"10","num_nodes":"1","size_leaf_vector":"1"}},{"base_weights":[-1.2394672E-3],"categories":[],"categories_nodes":[],"categories_segments":[],"categories_sizes":[],"default_left":[0],"id":110,"left_children":[-1],"loss_changes":[0E0],"parents":[2147483647],"right_children":[-1],"split_conditions":[-1.2394672E-4],"split_indices":[0],"split_type":[0],"sum_hessian":[7E1],"tree_param":{"num_deleted":"0","num_feature":"10","num_nodes":"1","size_leaf_vector":"1"}},{"base_weights":[4.0789507E-3],"categories":[],"categories_nodes":[],"categories_segments":[],"categories_sizes":[],"default_left":[0],"id":111,"left_children":[-1],"loss_changes":[0E0],"parents":[2147483647],"right_children":[-1],"split_conditions":[4.0789507E-4],"split_indices":[0],"split_type":[0],"sum_hessian":[6.9E1],"tree_param":{"num_deleted":"0","num_feature":"10","num_nodes":"1","size_leaf_vector":"1"}},{"base_weights":[2.5383472E-3,9.540713E-3,-3.779687E-3,5.4604043E-3,-4.4488927E-4],"categories":[],"categories_nodes":[],"categories_segments":[],"categories_sizes":[],"default_left":[0,0,0,0,0],"id":112,"left_children":[1,3,-1,-1,-1],"loss_changes":[2.0978874E-2,3.9959274E-2,0E0,0E0,0E0],"parents":[2147483647,0,0,1,1],"right_children":[2,4,-1,-1,-1],"split_conditions":[8.796811E-1,-4.9241504E-1,-3.779687E-3,5.4604043E-3,-4.4488927E-4],"split_indices":[3,6,0,0,0],"split_type":[0,0,0,0,0],"sum_hessian":[7.2E1,6.2E1,1E1,1.4E1,4.8E1],"tree_param":{"num_deleted":"0","num_feature":"10","num_nodes":"5","size_leaf_vector":"1"}},{"base_weights":[1.4898166E-3],"categories":[],"categories_nodes":[],"categories_segments":[],"categories_sizes":[],"default_left":[0],"id":113,"left_children":[-1],"loss_changes":[0E0],"parents":[2147483647],"right_children":[-1],"split_conditions":[1.4898166E-4],"split_indices":[0],"split_type":[0],"sum_hessian":[7.3E1],"tree_param":{"num_deleted":"0","num_feature":"10","num_nodes":"1","size_leaf_vector":"1"}},{"base_weights":[-5.478327E-3],"categories":[],"categories_nodes":[],"categories_segments":[],"categories_sizes":[],"default_left":[0],"id":114,"left_children":[-1],"loss_changes":[0E0],"parents":[2147483647],"right_children":[-1],"split_conditions":[-5.4783275E-4],"split_indices":[0],"split_type":[0],"sum_hessian":[7.3E1],"tree_param":{"num_deleted":"0","num_feature":"10","num_nodes":"1","size_leaf_vector":"1"}},{"base_weights":[3.6899138E-3],"categories":[],"categories_nodes":[],"categories_segments":[],"categories_sizes":[],"default_left":[0],"id":115,"left_children":[-1],"loss_changes":[0E0],"parents":[2147483647],"right_children":[-1],"split_conditions":[3.6899137E-4],"split_indices":[0],"split_type":[0],"sum_hessian":[6.4E1],"tree_param":{"num_deleted":"0","num_feature":"10","num_nodes":"1","size_leaf_vector":"1"}},{"base_weights":[1.5297587E-4],"categories":[],"categories_nodes":[],"categories_segments":[],"categories_sizes":[],"default_left":[0],"id":116,"left_children":[-1],"loss_changes":[0E0],"parents":[2147483647],"right_children":[-1],"split_conditions":[1.5297588E-5],"split_indices":[0],"split_type":[0],"sum_hessian":[6.6E1],"tree_param":{"num_deleted":"0","num_feature":"10","num_nodes":"1","size_leaf_vector":"1"}},{"base_weights":[7.871911E-3],"categories":[],"categories_nodes":[],"categories_segments":[],"categories_sizes":[],"default_left":[0],"id":117,"left_children":[-1],"loss_changes":[0E0],"parents":[2147483647],"right_children":[-1],"split_conditions":[7.871911E-4],"split_indices":[0],"split_type":[0],"sum_hessian":[6.3E1],"tree_param":{"num_deleted":"0","num_feature":"10","num_nodes":"1","size_leaf_vector":"1"}},{"base_weights":[-3.343287E-3],"categories":[],"categories_nodes":[],"categories_segments":[],"categories_sizes":[],"default_left":[0],"id":118,"left_children":[-1],"loss_changes":[0E0],"parents":[2147483647],"right_children":[-1],"split_conditions":[-3.343287E-4],"split_indices":[0],"split_type":[0],"sum_hessian":[7.2E1],"tree_param":{"num_deleted":"0","num_feature":"10","num_nodes":"1","size_leaf_vector":"1"}},{"base_weights":[5.5192964E-4],"categories":[],"categories_nodes":[],"categories_segments":[],"categories_sizes":[],"default_left":[0],"id":119,"left_children":[-1],"loss_changes":[0E0],"parents":[2147483647],"right_children":[-1],"split_conditions":[5.5192966E-5],"split_indices":[0],"split_type":[0],"sum_hessian":[6.9E1],"tree_param":{"num_deleted":"0","num_feature":"10","num_nodes":"1","size_leaf_vector":"1"}},{"base_weights":[-3.6296805E-3],"categories":[],"categories_nodes":[],"categories_segments":[],"categories_sizes":[],"default_left":[0],"id":120,"left_children":[-1],"loss_changes":[0E0],"parents":[2147483647],"right_children":[-1],"split_conditions":[-3.6296804E-4],"split_indices":[0],"split_type":[0],"sum_hessian":[7.2E1],"tree_param":{"num_deleted":"0","num_feature":"10","num_nodes":"1","size_leaf_vector":"1"}},{"base_weights":[-3.8943572E-3],"categories":[],"categories_nodes":[],"categories_segments":[],"categories_sizes":[],"default_left":[0],"id":121,"left_children":[-1],"loss_changes":[0E0],"parents":[2147483647],"right_children":[-1],"split_conditions":[-3.8943574E-4],"split_indices":[0],"split_type":[0],"sum_hessian":[7.8E1],"tree_param":{"num_deleted":"0","num_feature":"10","num_nodes":"1","size_leaf_vector":"1"}},{"base_weights":[-5.684841E-3],"categories":[],"categories_nodes":[],"categories_segments":[],"categories_sizes":[],"default_left":[0],"id":122,"left_children":[-1],"loss_changes":[0E0],"parents":[2147483647],"right_children":[-1],"split_conditions":[-5.6848413E-4],"split_indices":[0],"split_type":[0],"sum_hessian":[6.6E1],"tree_param":{"num_deleted":"0","num_feature":"10","num_nodes":"1","size_leaf_vector":"1"}},{"base_weights":[7.307734E-3],"categories":[],"categories_nodes":[],"categories_segments":[],"categories_sizes":[],"default_left":[0],"id":123,"left_children":[-1],"loss_changes":[0E0],"parents":[2147483647],"right_children":[-1],"split_conditions":[7.307734E-4],"split_indices":[0],"split_type":[0],"sum_hessian":[7.2E1],"tree_param":{"num_deleted":"0","num_feature":"10","num_nodes":"1","size_leaf_vector":"1"}},{"base_weights":[-6.662987E-3],"categories":[],"categories_nodes":[],"categories_segments":[],"categories_sizes":[],"default_left":[0],"id":124,"left_children":[-1],"loss_changes":[0E0],"parents":[2147483647],"right_children":[-1],"split_conditions":[-6.662987E-4],"split_indices":[0],"split_type":[0],"sum_hessian":[7E1],"tree_param":{"num_deleted":"0","num_feature":"10","num_nodes":"1","size_leaf_vector":"1"}},{"base_weights":[1.2697668E-3],"categories":[],"categories_nodes":[],"categories_segments":[],"categories_sizes":[],"default_left":[0],"id":125,"left_children":[-1],"loss_changes":[0E0],"parents":[2147483647],"right_children":[-1],"split_conditions":[1.2697668E-4],"split_indices":[0],"split_type":[0],"sum_hessian":[7.8E1],"tree_param":{"num_deleted":"0","num_feature":"10","num_nodes":"1","size_leaf_vector":"1"}},{"base_weights":[2.0110345E-4],"categories":[],"categories_nodes":[],"categories_segments":[],"categories_sizes":[],"default_left":[0],"id":126,"left_children":[-1],"loss_changes":[0E0],"parents":[2147483647],"right_children":[-1],"split_conditions":[2.0110345E-5],"split_indices":[0],"split_type":[0],"sum_hessian":[7E1],"tree_param":{"num_deleted":"0","num_feature":"10","num_nodes":"1","size_leaf_vector":"1"}},{"base_weights":[1.2292952E-5],"categories":[],"categories_nodes":[],"categories_segments":[],"categories_sizes":[],"default_left":[0],"id":127,"left_children":[-1],"loss_changes":[0E0],"parents":[2147483647],"right_children":[-1],"split_conditions":[1.2292952E-6],"split_indices":[0],"split_type":[0],"sum_hessian":[6.9E1],"tree_param":{"num_deleted":"0","num_feature":"10","num_nodes":"1","size_leaf_vector":"1"}},{"base_weights":[-2.0755245E-3],"categories":[],"categories_nodes":[],"categories_segments":[],"categories_sizes":[],"default_left":[0],"id":128,"left_children":[-1],"loss_changes":[0E0],"parents":[2147483647],"right_children":[-1],"split_conditions":[-2.0755245E-4],"split_indices":[0],"split_type":[0],"sum_hessian":[7.1E1],"tree_param":{"num_deleted":"0","num_feature":"10","num_nodes":"1","size_leaf_vector":"1"}},{"base_weights":[5.5833007E-3],"categories":[],"categories_nodes":[],"categories_segments":[],"categories_sizes":[],"default_left":[0],"id":129,"left_children":[-1],"loss_changes":[0E0],"parents":[2147483647],"right_children":[-1],"split_conditions":[5.583301E-4],"split_indices":[0],"split_type":[0],"sum_hessian":[8.2E1],"tree_param":{"num_deleted":"0","num_feature":"10","num_nodes":"1","size_leaf_vector":"1"}},{"base_weights":[-3.947188E-3],"categories":[],"categories_nodes":[],"categories_segments":[],"categories_sizes":[],"default_left":[0],"id":130,"left_children":[-1],"loss_changes":[0E0],"parents":[2147483647],"right_children":[-1],"split_conditions":[-3.947188E-4],"split_indices":[0],"split_type":[0],"sum_hessian":[7.4E1],"tree_param":{"num_deleted":"0","num_feature":"10","num_nodes":"1","size_leaf_vector":"1"}},{"base_weights":[1.4910963E-3],"categories":[],"categories_nodes":[],"categories_segments":[],"categories_sizes":[],"default_left":[0],"id":131,"left_children":[-1],"loss_changes":[0E0],"parents":[2147483647],"right_children":[-1],"split_conditions":[1.4910963E-4],"split_indices":[0],"split_type":[0],"sum_hessian":[7.8E1],"tree_param":{"num_deleted":"0","num_feature":"10","num_nodes":"1","size_leaf_vector":"1"}},{"base_weights":[-9.002061E-3],"categories":[],"categories_nodes":[],"categories_segments":[],"categories_sizes":[],"default_left":[0],"id":132,"left_children":[-1],"loss_changes":[0E0],"parents":[2147483647],"right_children":[-1],"split_conditions":[-9.002061E-4],"split_indices":[0],"split_type":[0],"sum_hessian":[7.4E1],"tree_param":{"num_deleted":"0","num_feature":"10","num_nodes":"1","size_leaf_vector":"1"}},{"base_weights":[-7.7578996E-4],"categories":[],"categories_nodes":[],"categories_segments":[],"categories_sizes":[],"default_left":[0],"id":133,"left_children":[-1],"loss_changes":[0E0],"parents":[2147483647],"right_children":[-1],"split_conditions":[-7.7578996E-5],"split_indices":[0],"split_type":[0],"sum_hessian":[7.2E1],"tree_param":{"num_deleted":"0","num_feature":"10","num_nodes":"1","size_leaf_vector":"1"}},{"base_weights":[-7.0728775E-4,-1.3202868E-3,2.7887719E-3],"categories":[],"categories_nodes":[],"categories_segments":[],"categories_sizes":[],"default_left":[0,0,0],"id":134,"left_children":[1,-1,-1],"loss_changes":[2.466536E-2,0E0,0E0],"parents":[2147483647,0,0],"right_children":[2,-1,-1],"split_conditions":[5.9552306E-1,-1.3202868E-3,2.7887719E-3],"split_indices":[2,0,0],"split_type":[0,0,0],"sum_hessian":[6.7E1,4.7E1,2E1],"tree_param":{"num_deleted":"0","num_feature":"10","num_nodes":"3","size_leaf_vector":"1"}},{"base_weights":[2.7697894E-3],"categories":[],"categories_nodes":[],"categories_segments":[],"categories_sizes":[],"default_left":[0],"id":135,"left_children":[-1],"loss_changes":[0E0],"parents":[2147483647],"right_children":[-1],"split_conditions":[2.7697894E-4],"split_indices":[0],"split_type":[0],"sum_hessian":[6.8E1],"tree_param":{"num_deleted":"0","num_feature":"10","num_nodes":"1","size_leaf_vector":"1"}},{"base_weights":[4.9383583E-4],"categories":[],"categories_nodes":[],"categories_segments":[],"categories_sizes":[],"default_left":[0],"id":136,"left_children":[-1],"loss_changes":[0E0],"parents":[2147483647],"right_children":[-1],"split_conditions":[4.9383583E-5],"split_indices":[0],"split_type":[0],"sum_hessian":[7.7E1],"tree_param":{"num_deleted":"0","num_feature":"10","num_nodes":"1","size_leaf_vector":"1"}},{"base_weights":[-9.46936E-4],"categories":[],"categories_nodes":[],"categories_segments":[],"categories_sizes":[],"default_left":[0],"id":137,"left_children":[-1],"loss_changes":[0E0],"parents":[2147483647],"right_children":[-1],"split_conditions":[-9.4693605E-5],"split_indices":[0],"split_type":[0],"sum_hessian":[6.8E1],"tree_param":{"num_deleted":"0","num_feature":"10","num_nodes":"1","size_leaf_vector":"1"}},{"base_weights":[4.2424486E-3],"categories":[],"categories_nodes":[],"categories_segments":[],"categories_sizes":[],"default_left":[0],"id":138,"left_children":[-1],"loss_changes":[0E0],"parents":[2147483647],"right_children":[-1],"split_conditions":[4.2424488E-4],"split_indices":[0],"split_type":[0],"sum_hessian":[7.3E1],"tree_param":{"num_deleted":"0","num_feature":"10","num_nodes":"1","size_leaf_vector":"1"}},{"base_weights":[-1.6986518E-3],"categories":[],"categories_nodes":[],"categories_segments":[],"categories_sizes":[],"default_left":[0],"id":139,"left_children":[-1],"loss_changes":[0E0],"parents":[2147483647],"right_children":[-1],"split_conditions":[-1.6986519E-4],"split_indices":[0],"split_type":[0],"sum_hessian":[6.5E1],"tree_param":{"num_deleted":"0","num_feature":"10","num_nodes":"1","size_leaf_vector":"1"}},{"base_weights":[2.601573E-3],"categories":[],"categories_nodes":[],"categories_segments":[],"categories_sizes":[],"default_left":[0],"id":140,"left_children":[-1],"loss_changes":[0E0],"parents":[2147483647],"right_children":[-1],"split_conditions":[2.601573E-4],"split_indices":[0],"split_type":[0],"sum_hessian":[6.8E1],"tree_param":{"num_deleted":"0","num_feature":"10","num_nodes":"1","size_leaf_vector":"1"}},{"base_weights":[2.5489807E-4],"categories":[],"categories_nodes":[],"categories_segments":[],"categories_sizes":[],"default_left":[0],"id":141,"left_children":[-1],"loss_changes":[0E0],"parents":[2147483647],"right_children":[-1],"split_conditions":[2.5489808E-5],"split_indices":[0],"split_type":[0],"sum_hessian":[6.8E1],"tree_param":{"num_deleted":"0","num_feature":"10","num_nodes":"1","size_leaf_vector":"1"}},{"base_weights":[-6.2177666E-3],"categories":[],"categories_nodes":[],"categories_segments":[],"categories_sizes":[],"default_left":[0],"id":142,"left_children":[-1],"loss_changes":[0E0],"parents":[2147483647],"right_children":[-1],"split_conditions":[-6.217767E-4],"split_indices":[0],"split_type":[0],"sum_hessian":[7.8E1],"tree_param":{"num_deleted":"0","num_feature":"10","num_nodes":"1","size_leaf_vector":"1"}},{"base_weights":[4.3603466E-3],"categories":[],"categories_nodes":[],"categories_segments":[],"categories_sizes":[],"default_left":[0],"id":143,"left_children":[-1],"loss_changes":[0E0],"parents":[2147483647],"right_children":[-1],"split_conditions":[4.3603466E-4],"split_indices":[0],"split_type":[0],"sum_hessian":[7E1],"tree_param":{"num_deleted":"0","num_feature":"10","num_nodes":"1","size_leaf_vector":"1"}},{"base_weights":[1.1468823E-4],"categories":[],"categories_nodes":[],"categories_segments":[],"categories_sizes":[],"default_left":[0],"id":144,"left_children":[-1],"loss_changes":[0E0],"parents":[2147483647],"right_children":[-1],"split_conditions":[1.1468823E-5],"split_indices":[0],"split_type":[0],"sum_hessian":[7.4E1],"tree_param":{"num_deleted":"0","num_feature":"10","num_nodes":"1","size_leaf_vector":"1"}},{"base_weights":[4.591817E-3],"categories":[],"categories_nodes":[],"categories_segments":[],"categories_sizes":[],"default_left":[0],"id":145,"left_children":[-1],"loss_changes":[0E0],"parents":[2147483647],"right_children":[-1],"split_conditions":[4.591817E-4],"split_indices":[0],"split_type":[0],"sum_hessian":[7.1E1],"tree_param":{"num_deleted":"0","num_feature":"10","num_nodes":"1","size_leaf_vector":"1"}},{"base_weights":[-2.7010993E-3],"categories":[],"categories_nodes":[],"categories_segments":[],"categories_sizes":[],"default_left":[0],"id":146,"left_children":[-1],"loss_changes":[0E0],"parents":[2147483647],"right_children":[-1],"split_conditions":[-2.7010994E-4],"split_indices":[0],"split_type":[0],"sum_hessian":[7.4E1],"tree_param":{"num_deleted":"0","num_feature":"10","num_nodes":"1","size_leaf_vector":"1"}},{"base_weights":[-4.0525715E-3],"categories":[],"categories_nodes":[],"categories_segments":[],"categories_sizes":[],"default_left":[0],"id":147,"left_children":[-1],"loss_changes":[0E0],"parents":[2147483647],"right_children":[-1],"split_conditions":[-4.0525716E-4],"split_indices":[0],"split_type":[0],"sum_hessian":[6.6E1],"tree_param":{"num_deleted":"0","num_feature":"10","num_nodes":"1","size_leaf_vector":"1"}},{"base_weights":[1.4802654E-3,-1.1087012E-3,3.4922515E-3],"categories":[],"categories_nodes":[],"categories_segments":[],"categories_sizes":[],"default_left":[0,0,0],"id":148,"left_children":[1,-1,-1],"loss_changes":[3.2328315E-2,0E0,0E0],"parents":[2147483647,0,0],"right_children":[2,-1,-1],"split_conditions":[1.1568954E-1,-1.1087012E-3,3.4922515E-3],"split_indices":[7,0,0],"split_type":[0,0,0],"sum_hessian":[7.5E1,5.5E1,2E1],"tree_param":{"num_deleted":"0","num_feature":"10","num_nodes":"3","size_leaf_vector":"1"}},{"base_weights":[-3.7896396E-3],"categories":[],"categories_nodes":[],"categories_segments":[],"categories_sizes":[],"default_left":[0],"id":149,"left_children":[-1],"loss_changes":[0E0],"parents":[2147483647],"right_children":[-1],"split_conditions":[-3.7896397E-4],"split_indices":[0],"split_type":[0],"sum_hessian":[6.5E1],"tree_param":{"num_deleted":"0","num_feature":"10","num_nodes":"1","size_leaf_vector":"1"}},{"base_weights":[-4.1442416E-3,-8.4557914E-4,6.479873E-3],"categories":[],"categories_nodes":[],"categories_segments":[],"categories_sizes":[],"default_left":[0,0,0],"id":150,"left_children":[1,-1,-1],"loss_changes":[2.0166494E-2,0E0,0E0],"parents":[2147483647,0,0],"right_children":[2,-1,-1],"split_conditions":[1.801654E0,-8.4557914E-4,6.479873E-3],"split_indices":[4,0,0],"split_type":[0,0,0],"sum_hessian":[6.5E1,6.2E1,3E0],"tree_param":{"num_deleted":"0","num_feature":"10","num_nodes":"3","size_leaf_vector":"1"}},{"base_weights":[5.405984E-3],"categories":[],"categories_nodes":[],"categories_segments":[],"categories_sizes":[],"default_left":[0],"id":151,"left_children":[-1],"loss_changes":[0E0],"parents":[2147483647],"right_children":[-1],"split_conditions":[5.405984E-4],"split_indices":[0],"split_type":[0],"sum_hessian":[7.3E1],"tree_param":{"num_deleted":"0","num_feature":"10","num_nodes":"1","size_leaf_vector":"1"}},{"base_weights":[7.079575E-3,1.196799E-3,-5.4390794E-3],"categories":[],"categories_nodes":[],"categories_segments":[],"categories_sizes":[],"default_left":[0,0,0],"id":152,"left_children":[1,-1,-1],"loss_changes":[2.4389863E-2,0E0,0E0],"parents":[2147483647,0,0],"right_children":[2,-1,-1],"split_conditions":[2.237348E0,1.196799E-3,-5.4390794E-3],"split_indices":[6,0,0],"split_type":[0,0,0],"sum_hessian":[7.8E1,7.3E1,5E0],"tree_param":{"num_deleted":"0","num_feature":"10","num_nodes":"3","size_leaf_vector":"1"}},{"base_weights":[-3.3397805E-3],"categories":[],"categories_nodes":[],"categories_segments":[],"categories_sizes":[],"default_left":[0],"id":153,"left_children":[-1],"loss_changes":[0E0],"parents":[2147483647],"right_children":[-1],"split_conditions":[-3.3397807E-4],"split_indices":[0],"split_type":[0],"sum_hessian":[6.8E1],"tree_param":{"num_deleted":"0","num_feature":"10","num_nodes":"1","size_leaf_vector":"1"}},{"base_weights":[-7.792205E-4],"categories":[],"categories_nodes":[],"categories_segments":[],"categories_sizes":[],"default_left":[0],"id":154,"left_children":[-1],"loss_changes":[0E0],"parents":[2147483647],"right_children":[-1],"split_conditions":[-7.792205E-5],"split_indices":[0],"split_type":[0],"sum_hessian":[7.5E1],"tree_param":{"num_deleted":"0","num_feature":"10","num_nodes":"1","size_leaf_vector":"1"}},{"base_weights":[5.267819E-3],"categories":[],"categories_nodes":[],"categories_segments":[],"categories_sizes":[],"default_left":[0],"id":155,"left_children":[-1],"loss_changes":[0E0],"parents":[2147483647],"right_children":[-1],"split_conditions":[5.267819E-4],"split_indices":[0],"split_type":[0],"sum_hessian":[6.9E1],"tree_param":{"num_deleted":"0","num_feature":"10","num_nodes":"1","size_leaf_vector":"1"}},{"base_weights":[8.25647E-4],"categories":[],"categories_nodes":[],"categories_segments":[],"categories_sizes":[],"default_left":[0],"id":156,"left_children":[-1],"loss_changes":[0E0],"parents":[2147483647],"right_children":[-1],"split_conditions":[8.25647E-5],"split_indices":[0],"split_type":[0],"sum_hessian":[7E1],"tree_param":{"num_deleted":"0","num_feature":"10","num_nodes":"1","size_leaf_vector":"1"}},